tree
version=v4
num_class=3
num_tree_per_iteration=3
label_index=0
max_feature_idx=92
objective=multiclass num_class:3
feature_names=Column_0 Column_1 Column_2 Column_3 Column_4 Column_5 Column_6 Column_7 Column_8 Column_9 Column_10 Column_11 Column_12 Column_13 Column_14 Column_15 Column_16 Column_17 Column_18 Column_19 Column_20 Column_21 Column_22 Column_23 Column_24 Column_25 Column_26 Column_27 Column_28 Column_29 Column_30 Column_31 Column_32 Column_33 Column_34 Column_35 Column_36 Column_37 Column_38 Column_39 Column_40 Column_41 Column_42 Column_43 Column_44 Column_45 Column_46 Column_47 Column_48 Column_49 Column_50 Column_51 Column_52 Column_53 Column_54 Column_55 Column_56 Column_57 Column_58 Column_59 Column_60 Column_61 Column_62 Column_63 Column_64 Column_65 Column_66 Column_67 Column_68 Column_69 Column_70 Column_71 Column_72 Column_73 Column_74 Column_75 Column_76 Column_77 Column_78 Column_79 Column_80 Column_81 Column_82 Column_83 Column_84 Column_85 Column_86 Column_87 Column_88 Column_89 Column_90 Column_91 Column_92
feature_infos=[-1.2074204904902592:2.536564241497766] [-1.060601832685877:3.4740973417112184] [-1.824039486898603:0.86417905018939489] [-1.6446319714109223:1.0599590795360088] [-1.62312642938093:1.0182543475195331] [-1.4406871106741048:1.2128837475772993] [-2.2816845426059542:0.99414017621347539] [-1.7859918734034237:1.1077515441336783] [-2.7754489124097805:0.71313617888306868] [-1.4371030830257203:1.2489393246206848] [-1.791389169724368:0.98051266041248297] [-2.3963139344261628:0.83323693438473567] [-1.1167074701795037:1.3766779582554531] [-1.8653640458211049:0.94867769151953296] [-1.2187915845560366:1.4873340096504784] [-0.85080931876100374:2.045327139893089] [-0.82109012986460839:2.0889514048231139] [-1.0805698958518242:1.783772160031776] [-1.3028183924907892:1.8133510382902294] [-2.4365779287469755:0.98048844634488896] [-0.84769858410571475:2.0007623489906741] [-1.0368887894750329:1.9454471440705545] [-1.0583192573620817:1.6174241658896855] [-1.4319673638009074:1.3901887389618774] [-1.7121536311674543:1.2988310430754604] [-0.71495587688144546:2.1648578377582828] [-2.0334040587172852:1.055261119718417] [-2.0991420140884163:1.0065102735615981] [-1.6163419182845471:1.1232601229353625] [-1.4786532778346879:1.4183252090470948] [-1.0830345715850735:1.6529915681014375] [-0.97150862811334537:1.9166275714453425] [-1.281534693339107:1.3921326334765445] [-1.1600180945883825:1.2214179181204705] [-1.6400050346148314:1.5185231801989176] [-1.4987263350284903:1.2328794483348231] [-1.8530032997199786:1.2491786741264173] [-1.3157116533502546:1.8211991162180801] [-1.0233135875017698:1.89736592899474] [-1.4705658061939793:1.2250259948767295] [-1.2802151459745814:1.4570372288352231] [-1.5513635952258318:1.111350068064946] [-1.5640963486469932:0.99271627801869899] [-1.6649836375373748:1.0978559246103283] [-1.682148390228358:0.95058493644355146] [-2.2784046141175498:0.98971998249017867] [-1.481346620090122:0.99057012034275349] [-1.8767065057894659:1.0775603670137543] [-0.91113713714076439:1.8770787731558241] [-1.1181486321447205:1.3662741548586104] [-1.217641672500515:1.3336591782507865] [-1.7360779863127016:0.99849180178980013] [-1.2492143748177909:1.3807302335445073] [-1.2489122024093109:1.6520654997319608] [-1.7371918531779409:1.1385394692311781] [-1.6367949321606035:1.2008388680780409] [-1.0732049046600143:1.7233079864418832] [-1.4436617636177995:1.2036452605095018] [-1.6230471723827435:1.0717875894306836] [-1.285835186485452:1.4307261547493573] [-2.005811120994256:0.94337044599146636] [-1.1362551348884999:1.5200869737976801] [-1.2461043129729679:1.3810144342162145] [-1.0928973935178636:1.6090595982841149] [-0.87053108291484937:2.0127904017987794] [-1.182293750175089:1.3220758169624813] [-1.6859535088904265:0.9856096134525828] [-1.0530047960721309:1.7265262333653459] [-1.4064250403179919:1.3020606668446613] [-1.3351044237149072:1.1963224167372899] [-0.79340488403765652:1.7668900080408887] [-2.213128576169376:0.93990126775405625] [-0.99139560179617292:1.6748627287416631] [-0.73492213643172699:2.0640071115162426] [-0.98162800974684217:2.2650919718874363] [-1.011372219086458:1.6271851105010158] [-2.4683910332801973:0.91761213499125871] [-1.2188094984122124:1.4750695620314063] [-1.6125872418094551:1.2772968251956078] [-1.2022062240905713:1.6941670645972595] [-1.3859723118606857:1.6420619033744057] [-0.87950242886217933:1.9322763960192171] [-2.3154058546340579:0.83457244994061131] [-1.401371835283608:1.3267814425065159] [-1.9561978583969211:1.1078284759734935] [-1.9723807069133215:1.010434441734557] [-1.0511324106246371:1.7538741810394072] [-1.7158345765673868:1.1647353208080062] [-1.0690182830490249:1.8604072060981285] [-2.1969049974590567:1.1859716731115886] [-1.1730208614398612:1.5708625818221651] [-1.4101631460012298:1.4431056888601619] [-0.96372615320485877:1.8078945090371854]
tree_sizes=3332 3286 3336 3442 3455 3456 3446 3469 3478 3451 3459 3471 3455 3457 3476 3452 3454 3464 3459 3460 3460 3455 3452 3452 3468 3470 3462 3455 3458 3457 3466 3461 3473 3447 3449 3472 3457 3480 3450 3461 3472 3455 3452 3467 3460 3458 3450 3472 3460 3467 3447 3447 3470 3458 3462 3466 3452 3458 3469 3473 3455 3466 3471 3454 3477 3478 3462 3466 3460 3461 3443 3453 3466 3462 3473 3459 3490 3471 3452 3467 3483 3471 3470 3476 3464 3465 3473 3463 3473 3467 3455 3466 3456 3467 3471 3480 3484 3461 3479 3449 3464 3474 3462 3471 3487 3456 3463 3475 3454 3458 3476 3462 3476 3488 3487 3475 3461 3468 3473 3471 3476 3480 3483 3463 3460 3483 3466 3470 3461 3471 3454 3477 3472 3481 3477 3458 3458 3471 3477 3478 3470 3482 3468 3469 3469 3473 3495 3471 3469 3477 3472 3484 3477 3472 3463 3477 3481 3470 3485 3476 3470 3486 3493 3459 3479 3479 3463 3468 3479 3470 3471 3485 3472 3485 3484 3461 3480 3484 3483 3481 3489 3484 3477 3483 3478 3482 3488 3471 3474 3478 3469 3474 3490 3469 3489 3492 3484 3479 3466 3484 3507 3475 3488 3495 3487 3474 3487 3474 3484 3497 3485 3470 3476 3500 3474 3474 3486 3467 3465 3488 3470 3495 3498 3469 3495 3490 3480 3473 3482 3458 3486 3488 3485 3501 3479 3488 3474 3480 3482 3497 3485 3480 3489 3478 3480 3488 3491 3482 3476 3474 3470 3489 3485 3486 3472 3496 3477 3480 3485 3474 3481 3497 3477 3492 3485 3464 3491 3482 3475 3485 3472 3452 3457 3486 3487 3483 3483 3501 3474 3473 3460 3474 3483 3496 3470 3490 3476 3470 3499 3481 3459 3486 3480 3476 3495 3458 3485 3499 3498 3472 3486 3462 3475 3493 3487 3482 3479 3497 3494 3483 3487 3478 3484 3468 3461 3472 3485 3431 3495 3450 3491 3464 3469 3472 3489 3489 3445 3497 3455 3467 3483 3472 3442 3484 3487 3476 3486 3500 3457 3498 3486 3484 3487 3494 3484 3479 3500 3470 3494 3487 3488 3495 3467 3482 3489 3473 3471 3490 3480 3498 3490 3491 3489 3491 3495 3461 3474 3491 3471 3502 3493 3468 3491 3475 3483 3486 3491 3487 3492 3471 3489 3505 3479 3463 3492 3497 3480 3486 3490 3481 3493 3484 3485 3510 3480 3450 3487 3487 3488 3465 3479 3488 3502 3486 3486 3490 3477 3479 3490 3487 3462 3490 3493 3471 3470 3484 3437 3500 3492 3470 3490 3505 3501 3489 3467 3446 3491 3458 3494 3468 3494 3494 3464 3488 3457 3498 3506 3464 3491 3499 3477 3489 3481 3443 3497 3474 3476 3491 3487 3458 3480 3487 3480 3494 3482 3479 3507 3501 3467 3474 3491 3462 3490 3473 3469 3490 3478 3478 3478 3482 3461 3504 3466 3474 3460 3480 3466 3483 3490 3465 3470 3477 3448 3490 3492 3467 3482 3489 3478 3464 3486 3450 3489 3496 3451 3503 3486 3455 3472 3496 3466 3464 3496 3465 3494 3490 3479 3453 3482 3479 3478 3480 3479 3487 3478 3466 3475 3473 3464 3496 3479 3471 3486 3480 3460 3493 3480 3480 3490 3491 3450 3464 3483 3438 3497 3481 3465 3467 3472 3471 3483 3491 3481 3454 3494 3479 3475 3487 3479 3470 3484 3463 3494 3490 3481 3476 3488 3486 3460 3499 3460 3478 3479 3451 3501 3487 3455 3465 3482 3467 3496 3498 3448 3490 3472 3480 3493 3463 3461 3488 3485 3464 3490 3492 3478 3486 3502 3501 3446 3497 3492 3492 3494 3468 3458 3500 3478 3487 3490 3467 3464 3476 3458 3486 3455 3463 3489 3504 3464 3464 3479 3450 3464 3480 3475 3493 3493 3478 3485 3501 3461 3492 3470 3457 3495 3471 3487 3480 3495 3475 3487 3489 3467 3455 3479 3480 3460 3482 3471 3483 3467 3457 3474 3474 3478 3482 3491 3475 3485 3475 3457 3475 3461 3451 3509 3481 3454 3494 3487 3479 3465 3483 3454 3485 3470 3475 3484 3483 3469 3491 3487 3461 3467 3498 3463 3486 3486 3506 3472 3490 3474 3498 3459 3448 3466 3489 3460 3438 3478 3463 3257 3509 3469 3472 3484 3438 3505 3481 3466 3471 3465 3469 3482 3502 3492 3478 3487 3473 3152 3486 3456 3493 3483 3465 3483 3498 3460 3144 3473 3457 3490 3480 3453 3481 3496 3462 3491 3506 3484 3481 3493 3493 3269 3481 3449 3490 3480 3456 3489 3470 3478 3463 3497 3498 3469 3480 3461 3454 3505 3470 3473 3462 3463 3472 3485 3446 3481 3504 3498 3475 3507 3466 2815 3475 3444 3463 3482 3459 3478 3482 3497 3469 3492 3451 3482 3472 3469 3464 3487 3474 3481 3486 3468 3491 3491 3461 3456 3506 3472 3484 3475 3475 3466 3482 3487 3472 3500 3480 3488 3495 3487 3490 3489 3476 3465 3493 3484 3499 3498 3466 3483 3506 3474 3500 3493 3478 3479 3493 3489 3494 3474 3482 3161 3475 3463 3474 3492 3465 3453 3478 3475 3491 3498 3467 3488 3491 3480 3481 3463 3476 3481 3471 3456 3446 3483 3481 3452 3492 3456 3473 3486 3480 3473 3490 3456 3489 3459 3467 3475 3494 3463 3483 3480 3485 3439 3479 3475 3468 3488 3487 3445 3506 3470 3476 3479 3477 3488 3503 3477 3469 3497 3472 3502 3486 3467 3485 3487 3492 2614 3501 3481 3513 3492 3461 3485 3477 3493 3479 3497 3492

Tree=0
num_leaves=31
num_cat=0
split_feature=84 81 81 83 83 81 83 11 17 83 83 84 84 84 8 91 83 83 15 81 7 91 25 8 73 8 16 83 83 17
split_gain=2933.04 467.525 362.007 183.059 144.625 79.9476 63.0277 58.271 56.9019 53.6737 79.8801 52.5303 42.9738 39.748 38.8052 34.72 33.2278 68.2223 25.7342 22.5897 21.2807 19.7765 18.6581 15.7988 14.7519 14.4809 14.3958 14.1342 103.476 13.6893
threshold=0.34163906731177013 -0.87948083521243647 -0.87948083521243647 0.64442140037714679 0.64442140037714679 -0.17696695724230307 -0.037105224703538227 0.83322754062616056 -0.36447605040114778 0.64442140037714679 -0.011005669322923571 -0.42418023506210922 -0.42418023506210922 -0.42742221481109127 0.71303717361514873 -0.69683498114536013 1.3264038019926205 0.64763060873152234 -0.80226172402114693 -0.17696695724230307 0.38421824800062337 0.75604827699656085 -0.70842546855999033 0.71303717361514873 -0.67889222461508092 0.71303717361514873 0.12717644298673017 1.3264038019926205 0.64763060873152234 -0.86139737622148982
decision_type=2 2 2 2 2 2 2 2 2 2 2 2 2 2 2 2 2 2 2 2 2 2 2 2 2 2 2 2 2 2
left_child=1 11 9 6 7 -5 8 15 19 10 18 13 22 20 -10 -3 17 -7 -2 -4 -1 23 -6 -9 -24 -17 -20 28 -11 -22
right_child=2 4 3 5 12 16 -8 21 14 27 -12 -13 -14 -15 -16 25 -18 -19 26 -21 29 -23 24 -25 -26 -27 -28 -29 -30 -31
leaf_value=-1.0995738271296482 -1.0259082070354568 -1.1080325785231822 -1.1486122886681098 -1.1486122886681098 -1.0507862017115881 -1.0445660458935433 -1.1486122886681098 -1.1164694315252526 -1.1220249870808081 -1.0171467714267304 -1.1486122886681098 -1.1486122886681098 -1.1486122886681098 -1.0415256744948815 -1.0757349301775438 -1.1455895487901286 -1.0220165439872586 -1.1486122886681098 -1.0443750005325165 -1.0583779136681097 -1.0227194315252526 -1.1354543939312676 -1.0602561242845481 -1.0804304704862917 -1.1083948973637621 -1.1321189751465646 -1.0875657770402027 -1.0101507502065714 -1.1486122886681098 -1.0781303609572663
leaf_weight=69.333335399627686 196.00000584125519 69.000002056360245 7.3333335518836966 18.000000536441803 46.00000137090683 173.00000515580177 49.666668146848679 84.000002503395081 126.00000375509262 232.00000691413879 16.66666716337204 18.333333879709244 24.333334058523178 127.00000378489494 70.666668772697449 1803.0000537335873 141.00000420212746 17.333333849906921 59.000001758337021 128.00000381469727 18.666667222976685 76.000002264976501 24.333334058523178 47.666668087244034 46.00000137090683 224.33334001898766 28.666667520999908 364.00001084804535 16.000000476837158 27.666667491197586
leaf_count=208 588 207 22 54 138 519 149 252 378 696 50 55 73 381 212 5409 423 52 177 384 56 228 73 143 138 673 86 1092 48 83
internal_value=-1.09861 -1.13061 -1.04592 -1.07214 -1.1374 -1.04599 -1.09608 -1.14041 -1.08822 -1.02492 -1.04223 -1.067 -1.08819 -1.06084 -1.10539 -1.14291 -1.04041 -1.05404 -1.03598 -1.06327 -1.08204 -1.11515 -1.07555 -1.10342 -1.09174 -1.1441 -1.0585 -1.01642 -1.02563 -1.05581
internal_weight=4349 2705.67 1643.33 731 2444.67 349.333 381.667 2304 332 912.333 300.333 261 140.667 242.667 196.667 2096.33 331.333 190.333 283.667 135.333 115.667 207.667 116.333 131.667 70.3333 2027.33 87.6667 612 248 46.3333
internal_count=13047 8117 4930 2193 7334 1048 1145 6912 996 2737 901 783 422 728 590 6289 994 571 851 406 347 623 349 395 211 6082 263 1836 744 139
is_linear=0
shrinkage=1


Tree=1
num_leaves=31
num_cat=0
split_feature=84 81 82 92 83 18 85 92 19 83 53 82 8 83 18 9 2 35 37 15 27 10 28 54 6 54 43 70 90 8
split_gain=2582.28 712.236 233.938 212.627 166.57 124.953 101.403 93.5225 63.3988 55.1984 42.4602 42.103 36.7273 35.3434 33.9188 33.3789 32.8864 29.128 25.4093 24.5739 24.3041 26.1333 24.2588 22.9462 21.4461 21.4147 21.9399 29.3867 20.6268 18.6821
threshold=-0.42742221481109127 0.52654243865786032 0.047073292643571199 0.4221308426554497 -0.72146004014465803 0.25543860685100978 -0.48849070774664266 -0.27040667273702879 -0.053296390481161034 -0.74813187402076819 -0.52371661954932369 0.036075712858943572 -0.16337245852875057 -0.72672877703285887 0.39013150300090743 -0.210650462895454 0.71035968952606465 -0.067851093597390319 1.0000000180025095e-35 0.64476025814620497 0.24143571633498387 0.19401321369006147 -0.54518735086717074 1.0963713873139234 0.61708422076379132 -0.33154607519522167 -0.28386651402703394 -0.48522581656470148 0.92892329125595341 0.23442275014753675
decision_type=2 2 2 2 2 2 2 2 2 2 2 2 2 2 2 2 2 2 2 2 2 2 2 2 2 2 2 2 2 2
left_child=1 4 5 11 7 10 14 -1 -9 28 22 12 20 29 -5 16 17 -8 -12 -15 -2 -22 -3 -10 -16 26 27 -6 -4 -7
right_child=3 2 9 6 25 13 15 8 23 -11 18 -13 -14 19 24 -17 -18 -19 -20 -21 21 -23 -24 -25 -26 -27 -28 -29 -30 -31
leaf_value=-1.1296467714267304 -1.1177299357269332 -1.0211397611955824 -1.0876747886681097 -1.0992789553347764 -1.144953752082744 -1.0067203967762179 -1.1236122886681097 -1.11888255893838 -1.042936612992434 -1.1156577432135644 -1.1070064492520515 -1.1431770533494925 -1.135526666697189 -1.0655041805600016 -1.0427299357269333 -1.1330372087959053 -1.1394286151987221 -1.0757399482425778 -1.0578014778572991 -1.0232457197531537 -1.0452789553347765 -1.1386122886681098 -1.0605054925516049 -1.1093265743823955 -1.0978769945504627 -1.1369865797834218 -1.1269843816913656 -1.0580182292621692 -1.0346588002960169 -1.0306052956611167
leaf_weight=58.000001728534698 68.000002026557922 91.000002712011337 32.000000953674316 75.000002235174179 13.666667073965071 579.66668394207954 48.000001430511475 37.000001102685928 185.00000551342964 88.00000262260437 45.666668027639389 1600.6667143702507 206.33333948254585 49.333334803581238 79.333335697650909 208.66667288541794 49.000001460313797 94.000002801418304 61.666668504476547 113.66667005419731 30.000000894069672 10.000000298023222 68.666668713092804 14.000000417232512 22.666667342185974 176.33333858847618 71.666668802499771 33.66666767001152 43.000001281499863 95.333336174488068
leaf_count=174 204 273 96 225 41 1739 144 111 555 264 137 4802 619 148 238 626 147 282 185 341 90 30 206 42 68 529 215 101 129 286
internal_value=-1.09861 -1.05399 -1.03288 -1.13188 -1.0994 -1.02463 -1.10526 -1.07276 -1.05878 -1.0888 -1.05442 -1.13989 -1.12316 -1.01514 -1.07375 -1.11921 -1.10411 -1.09192 -1.07874 -1.03604 -1.09954 -1.06861 -1.03807 -1.04761 -1.05498 -1.12593 -1.10954 -1.08312 -1.05728 -1.01009
internal_weight=4349 1857.33 1268 2491.67 589.333 1105 576.667 294 236 163 267 1915 314.333 838 177 399.667 191 142 107.333 163 108 40 159.667 199 102 295.333 119 47.3333 75 675
internal_count=13047 5572 3804 7475 1768 3315 1730 882 708 489 801 5745 943 2514 531 1199 573 426 322 489 324 120 479 597 306 886 357 142 225 2025
is_linear=0
shrinkage=1


Tree=2
num_leaves=31
num_cat=0
split_feature=84 85 81 81 18 81 85 84 92 82 84 18 84 82 85 25 19 84 82 8 92 47 68 48 91 91 81 22 6 1
split_gain=307.166 390.861 174.192 155.255 136.675 91.2322 80.8842 75.7199 73.231 67.1981 53.5778 51.682 46.6651 39.8056 21.2834 19.241 19.2221 31.941 19.1041 18.6513 17.4164 16.4972 16.4532 16.3656 16.2842 11.7428 11.2064 11.2062 11.1019 9.58092
threshold=1.1074043427369484 -1.2265120085707528 -0.87948083521243647 1.2215719367769828 0.25543860685100978 -0.17696695724230307 0.26448480478644953 0.37389327779369302 0.4221308426554497 -0.19121587428167763 0.34163906731177013 0.3027801414158095 -0.42418023506210922 0.047073292643571199 0.26448480478644953 0.27043240237301741 0.12620873153021814 -0.21338054342823612 0.83456035447854937 -0.1901484337582541 -0.93487502001200251 1.0775517739706666 -0.4733418817912059 -0.30191706014464731 0.89889214537384021 -0.5314401741045518 -0.78478322627230568 -1.0322655894599009 0.12063161006501288 -0.35055689175528598
decision_type=2 2 2 2 2 2 2 2 2 2 2 2 2 2 2 2 2 2 2 2 2 2 2 2 2 2 2 2 2 2
left_child=1 4 7 5 16 19 -7 10 15 11 12 -5 -3 24 -11 26 17 18 -1 -4 28 23 -15 -18 -10 -12 -6 -22 29 -2
right_child=20 2 3 9 8 6 -8 -9 13 14 25 -13 -14 22 -16 -17 21 -19 -20 -21 27 -23 -24 -25 -26 -27 -28 -29 -30 -31
leaf_value=-1.0406505052286192 -1.0914694315252527 -1.0970767800308736 -1.0546122886681097 -1.0832958329719073 -1.1118775947905588 -1.0574464855593015 -1.0854178442236653 -1.0219889120447332 -1.1241401197621597 -1.0564554259230117 -1.1317786213334404 -1.1227579053100116 -1.0125011775569988 -1.1195425212262493 -1.0870538471096682 -1.1157355763393426 -1.0857664388657382 -1.1228310386681097 -1.1236122886681097 -1.0181590308777415 -1.1302578582883629 -1.0786874766380345 -1.072869714410684 -1.1127427234507186 -1.1421046964772203 -1.1125195734363218 -1.0649915990129373 -1.1059939042669955 -1.1356480029538241 -1.1309652298445805
leaf_weight=52.333334892988205 28.000000834465027 173.66667184233665 50.000001490116119 131.66667059063911 16.333333820104599 643.33335250616074 432.00001287460327 25.666667431592941 173.66667184233665 102.00000303983688 166.33333829045296 224.33334001898766 18.000000536441803 43.000001281499863 128.33333715796471 48.666668117046356 84.333335846662521 21.333333969116211 8.0000002384185773 117.6666701734066 79.000002354383469 88.666669309139252 33.66666767001152 168.66667169332504 461.00001373887062 151.00000450015068 58.000001728534698 119.66667023301125 466.66668057441711 34.000001013278961
leaf_count=157 84 521 150 395 49 1930 1296 77 521 306 499 673 54 129 385 146 253 64 24 353 237 266 101 506 1383 453 174 359 1400 102
internal_value=-1.09861 -1.09266 -1.08068 -1.07334 -1.11518 -1.06333 -1.06868 -1.10578 -1.12692 -1.09455 -1.11001 -1.10816 -1.08913 -1.13308 -1.0735 -1.0913 -1.09204 -1.07024 -1.05165 -1.02903 -1.12826 -1.09725 -1.09905 -1.10375 -1.13719 -1.12261 -1.07529 -1.11564 -1.13301 -1.11313
internal_weight=4349 3621.67 2364 1829.33 1257.67 1243 1075.33 534.667 834.333 586.333 509 356 191.667 711.333 230.333 123 423.333 81.6667 60.3333 167.667 727.333 341.667 76.6667 253 634.667 317.333 74.3333 198.667 528.667 62
internal_count=13047 10865 7092 5488 3773 3729 3226 1604 2503 1759 1527 1068 575 2134 691 369 1270 245 181 503 2182 1025 230 759 1904 952 223 596 1586 186
is_linear=0
shrinkage=1


Tree=3
num_leaves=31
num_cat=0
split_feature=84 81 92 83 83 92 20 92 84 54 84 84 4 92 24 8 11 69 24 92 92 17 15 21 83 59 5 91 65 24
split_gain=2629.5 432.93 346.587 149.051 136.233 90.8316 81.0383 56.4878 47.3121 43.5305 40.1252 34.8918 33.9534 33.8299 28.801 28.3539 27.6992 27.4563 27.451 22.7456 20.35 17.2223 16.4787 14.6977 13.9114 14.6764 13.3657 13.1966 13.1945 12.5214
threshold=0.34163906731177013 -0.87948083521243647 -0.96334086529829455 0.64442140037714679 0.64442140037714679 -0.27082501853539431 -0.84769029881918301 -0.27040667273702879 -0.42418023506210922 1.1385284268379465 -0.42418023506210922 -0.42742221481109127 1.0182442049985732 -0.27082501853539431 -0.20661743966312299 -0.16337245852875057 0.83322754062616056 1.1962505754073527 0.54599942344027741 -0.18559066242768132 -0.92474134246995598 -0.25887174499280408 0.073170424438446083 -1.0368658859959274 1.3264038019926205 0.78257233915871016 -0.11470417244343999 -0.69683498114536013 -1.071756143992088 1.2988266640666986
decision_type=2 2 2 2 2 2 2 2 2 2 2 2 2 2 2 2 2 2 2 2 2 2 2 2 2 2 2 2 2 2
left_child=1 8 15 6 7 -5 13 12 11 17 19 20 23 -4 -7 24 27 -8 -16 -6 -1 -15 -17 -3 25 -2 -13 -9 -21 -28
right_child=2 4 3 5 10 14 9 16 -10 -11 -12 26 -14 21 18 22 -18 -19 -20 28 -22 -23 -24 -25 -26 -27 29 -29 -30 -31
leaf_value=0.041046819055703856 0.046962883810865247 0.012639557562598592 -0.049954807010464931 -0.049955508767212164 0.04761858675233982 0.069737230245533757 -0.022481532232964022 -0.01393052830540765 -0.048819494747024211 0.037377076967338968 -0.049097834571857568 0.02792772470677193 0.027676581905486042 0.057957771952373616 -0.049827311088627049 0.076614022714666885 -0.022163564399893788 0.026796681768420563 0.045334494937870083 0.030520621538547055 -0.0015507526784563311 0.023184922273850342 0.054109761900383892 -0.03011677006023358 0.076465935506150134 -0.0073758594170742157 0.072732298730264044 -0.045600611074828157 -0.014754271780740942 0.027304996426521094
leaf_weight=46.892977088689804 38.620711147785187 22.484991431236267 10.642892986536024 21.604309946298599 49.886598825454712 177.60697296261787 225.3854276239872 33.494210869073868 17.867845445871353 44.254753798246384 23.866111874580383 37.222403287887573 34.847250163555145 79.704576939344406 7.959663897752761 689.79790803790092 142.52814653515816 32.319805383682251 158.17712396383286 26.552683681249619 69.726443290710449 64.362104684114456 92.220561474561691 189.46522796154022 21.777899771928787 18.32111132144928 73.757577478885651 1832.3115066885948 40.848573952913284 19.09649184346199
leaf_count=139 113 68 32 65 148 518 677 101 55 131 73 109 105 234 24 2000 432 96 463 79 208 191 269 576 63 54 216 5630 122 56
internal_value=-1.37984e-05 -0.0309511 0.0489056 0.0256857 -0.0376524 0.0494893 0.00664208 -0.0406351 0.0297467 -0.00843434 0.00999949 0.0354372 -0.0180611 0.036068 0.0557395 0.071081 -0.0434091 -0.0163014 0.0407753 0.0220248 0.0155778 0.0424229 0.0739602 -0.0255809 0.0424782 0.0294793 0.0532419 -0.0450321 0.00308174 0.0633897
internal_weight=4343.6 2660.85 1682.76 822.018 2396.29 365.348 456.67 2255.13 264.564 301.96 141.154 246.696 246.797 154.71 343.744 860.738 2008.33 257.705 166.137 117.288 116.619 144.067 782.018 211.95 78.7197 56.9418 130.076 1865.81 67.4013 92.8541
internal_count=13047 8117 4930 2431 7334 1070 1361 6912 783 904 422 728 749 457 1005 2499 6163 773 487 349 347 425 2269 644 230 167 381 5731 201 272
is_linear=0
shrinkage=0.05


Tree=4
num_leaves=31
num_cat=0
split_feature=84 92 92 18 85 92 82 28 85 8 53 8 82 20 21 2 85 14 87 27 32 21 8 27 10 6 70 71 29 74
split_gain=2329.09 593.895 199.962 188.161 92.8536 80.5175 78.9328 57.6152 46.0231 40.2428 38.9999 38.078 35.4375 31.7679 30.8684 29.1895 29.0041 27.337 26.239 24.5585 24.4082 23.999 23.796 22.3329 24.0445 22.312 21.7835 21.6571 19.9249 19.8936
threshold=-0.42742221481109127 0.4221308426554497 0.4221308426554497 0.29537242479227432 -0.48849070774664266 -0.27040667273702879 0.047073292643571199 0.39456390041573736 -0.7915523644116168 -0.16337245852875057 -0.52371661954932369 -0.16337245852875057 0.036075712858943572 -0.46628836367059895 -0.27176763676660326 0.86386203688806773 -1.1789141978387623 0.23843573241423174 -0.27598022903168612 -0.54631135357533178 0.73463647507473551 0.76972849821617406 -0.20745882091267823 0.24143571633498387 0.19401321369006147 0.83965856499147684 -0.79325956284002985 -0.033161490879293633 0.30201625376462421 0.66757504150040436
decision_type=2 2 2 2 2 2 2 2 2 2 2 2 2 2 2 2 2 2 2 2 2 2 2 2 2 2 2 2 2 2
left_child=1 5 9 7 13 -1 8 10 19 12 26 14 23 -4 -7 18 -13 -8 27 -5 -12 -10 -9 -2 -25 28 -3 -6 -15 -19
right_child=2 3 4 6 15 11 17 22 21 -11 20 16 -14 25 -16 -17 -18 29 -20 -21 -22 -23 -24 24 -26 -27 -28 -29 -30 -31
leaf_value=-0.030042262601532727 -0.018503120094635006 0.014055412796975751 -0.027227037833576107 0.00033104642659360114 0.053387308693779348 -0.018068640124823756 -0.018073343237879368 0.037191873825799915 0.037787921493329379 -0.043569537685461228 0.0057872470278028196 0.027098913089954376 -0.035545207721628863 0.015080564253029258 0.048963574024582582 -0.041268813418101138 -0.021819721031990445 0.01923747932556992 -0.022648747875175446 0.080811803875174421 0.06002609706422584 0.070177470810752415 -0.016908607130106081 0.050402582115315897 -0.039317795998117029 -0.013116026782501136 0.062317215661620101 -0.0029803284859270937 0.055553730058017663 0.06951335903368154
leaf_weight=217.59169632196426 67.471056133508682 27.737492501735687 26.327065855264664 9.6107743084430677 21.727250695228577 21.752090275287628 25.011708617210388 27.32118883728981 115.12875816226006 1533.6534748971462 93.543491810560226 45.597707629203796 233.18928945064545 48.783116042613983 81.613264948129654 113.94750389456749 90.320141464471817 43.725842982530594 181.34334594011307 690.86560466885567 26.652017593383789 113.64225509762764 79.379837661981583 30.5674147605896 9.8814686238765699 23.015112191438675 148.85764449834824 78.996648788452148 80.735660493373871 35.773055762052536
leaf_count=659 204 82 79 28 65 65 75 81 338 4707 279 135 714 145 241 348 271 130 548 1998 79 331 237 90 30 69 437 238 238 106
internal_value=-9.56037e-06 0.0416272 -0.0322042 0.0574125 -0.00640658 -0.00803067 0.068715 0.028455 0.0733485 -0.0401147 0.0397837 0.0119855 -0.0245817 0.0234941 0.0348574 -0.0199113 -0.0054085 0.0275172 -0.0112834 0.0797076 0.0178141 0.0538775 -0.00305598 -0.000892013 0.0284843 0.0322484 0.0547368 0.00917879 0.0403096 0.0418607
internal_weight=4343.76 1894.12 2449.64 1437.25 574.876 456.875 1033.76 403.492 929.247 1874.76 296.791 239.283 341.109 178.861 103.365 396.015 135.918 104.511 282.067 700.476 120.196 228.771 106.701 107.92 40.4489 152.534 176.595 100.724 129.519 79.4989
internal_count=13047 5572 7475 4201 1730 1371 3006 1195 2695 5745 877 712 1038 531 306 1199 406 311 851 2026 358 669 318 324 120 452 519 303 383 236
is_linear=0
shrinkage=0.05


Tree=5
num_leaves=31
num_cat=0
split_feature=84 84 92 81 81 51 11 84 82 16 18 18 92 86 91 91 61 90 3 26 28 15 48 35 7 45 92 83 27 29
split_gain=280.269 356.56 142.672 159.023 93.2073 92.9825 88.5334 75.974 70.7786 57.8267 54.7481 31.2553 27.5724 26.4454 26.2959 23.0441 21.4722 19.9137 19.2985 17.0625 16.9539 16.7036 14.509 14.3509 13.7553 12.9189 11.3248 9.75633 8.64814 7.64066
threshold=1.1074043427369484 -1.1903978357337903 -0.96334086529829455 1.1942259455787274 -0.15728586954483484 -1.0204521931629922 0.83322754062616056 0.34218322353392361 0.021211222793502408 -0.093571281787337382 0.3027801414158095 0.26192379076228312 -0.27082501853539431 -0.35069205382633489 -0.68434278772180135 0.016214872258299134 -1.1272091841627936 -1.1728651198378461 -0.95908896528294674 0.300834138982916 -0.73525123696295791 0.26863671522554416 -0.67817562031681178 0.55074647524347442 0.38421824800062337 0.98970743336340705 1.4437778167118418 -1.3924841813563904 0.90036932072637244 0.45741521652368172
decision_type=2 2 2 2 2 2 2 2 2 2 2 2 2 2 2 2 2 2 2 2 2 2 2 2 2 2 2 2 2 2
left_child=1 4 7 5 18 12 -7 14 10 13 -5 16 -4 19 23 -16 -11 -10 28 -6 -15 26 -13 -3 27 -23 -2 -20 29 -1
right_child=21 2 3 8 9 6 -8 -9 17 11 -12 22 -14 20 15 -17 -18 -19 24 -21 -22 25 -24 -25 -26 -27 -28 -29 -30 -31
leaf_value=-0.017244295378258147 -0.032966418723978 -0.031745515725091704 0.065531610261768888 0.011311708027900595 0.032527725280393147 0.043351222587263677 0.010389794776889151 0.09067773138679372 -0.028553023391438254 0.019731981153609478 -0.022754282114800305 -0.013016609165190316 0.0055681219590856717 -0.0081713773114692762 0.088907825192164822 -0.0048853179404077136 -0.026825657898673763 0.025342121891678445 0.031495065577292029 -0.02016186002090338 0.079991921304936153 0.010535638414705169 -0.043565965793555317 -1.2340768204176375e-05 -0.00071024486882196225 -0.024248299138175514 0.011287835343179654 0.079990271802054369 -0.027109240378184227 0.042136942385033016
leaf_weight=9.05733171105385 587.96974536776543 204.26239132881165 20.117409825325012 185.77517718076706 19.3580142557621 879.5409951210022 265.13077807426453 17.545223146677017 18.424171388149261 36.462403267621994 323.00551834702492 42.500899106264114 407.43368282914162 8.3444243371486682 6.7874461114406577 186.20895427465439 77.193674445152283 245.76760601997375 20.144438743591305 74.489319086074829 15.736876815557478 43.260953098535538 454.48168095946312 43.155495882034302 14.090583175420759 69.703500270843506 14.820869266986845 21.376941204071048 19.654034584760666 13.478816807270048
leaf_count=27 1794 618 59 554 58 2599 791 51 55 109 982 129 1214 25 20 559 231 730 60 225 47 131 1388 130 42 212 45 63 59 40
internal_value=2.33503e-05 0.0056624 0.0141713 0.0191561 -0.023201 0.0282853 0.0357166 -0.0113552 0.000587191 -0.0293535 -0.0103155 -0.0355438 0.00838956 0.0027005 -0.01542 -0.00158673 -0.0118893 0.0215836 0.0226309 -0.00929351 0.0494424 -0.0285717 -0.0409534 -0.0262105 0.0419764 -0.0109274 -0.0318783 0.0564624 -0.00286885 0.0182715
internal_weight=4345.28 3629.52 2803.15 2345.2 826.369 1572.22 1144.67 457.96 772.972 728.567 508.781 610.639 427.551 117.929 440.414 192.996 113.656 264.192 97.8021 93.8473 24.0813 715.755 496.983 247.418 55.612 112.964 602.791 41.5214 42.1902 22.5361
internal_count=13047 10865 8362 6984 2503 4663 3390 1378 2321 2212 1536 1857 1273 355 1327 579 340 785 291 283 72 2182 1517 748 165 343 1839 123 126 67
is_linear=0
shrinkage=0.05


Tree=6
num_leaves=31
num_cat=0
split_feature=84 81 92 83 83 92 83 11 11 84 19 84 4 84 85 8 8 85 92 83 7 8 23 92 21 65 83 5 83 83
split_gain=2371 402.275 295.086 133.22 128.82 82.6809 76.3108 63.4932 53.3086 43.6236 38.0161 37.653 31.4003 30.3951 25.2927 25.1764 64.5102 21.8442 20.1168 18.7003 18.3964 17.7401 16.3663 15.5504 15.1016 12.3505 12.1947 11.8815 11.3333 14.7632
threshold=0.34163906731177013 -0.87948083521243647 -0.96334086529829455 0.64442140037714679 0.64442140037714679 -0.27082501853539431 -0.037105224703538227 0.83322754062616056 0.83322754062616056 -0.42418023506210922 0.12631882815460557 -0.42418023506210922 1.0182442049985732 -0.42742221481109127 0.26448480478644953 0.71303717361514873 -0.15900502033587963 -0.48092291204760768 -0.18559066242768132 -0.72146004014465803 0.38421824800062337 -0.16337245852875057 0.74998149675361991 -0.20419967573501949 -1.0368658859959274 -1.071756143992088 1.3264038019926205 -0.11470417244343999 -0.038490352264315825 -0.037105224703538227
decision_type=2 2 2 2 2 2 2 2 2 2 2 2 2 2 2 2 2 2 2 2 2 2 2 2 2 2 2 2 2 2
left_child=1 9 15 6 8 -5 7 10 12 13 -4 18 24 20 17 16 21 -7 -6 -9 -1 26 -16 -14 -3 -20 -2 -15 -10 -30
right_child=2 4 3 5 11 14 -8 19 28 -11 -12 -13 23 27 22 -17 -18 -19 25 -21 -22 -23 -24 -25 -26 -27 -28 -29 29 -31
leaf_value=-0.0014638452121886283 0.027382540916430255 -0.017470955137665126 0.015887258004419823 -0.049231703730103625 0.044886641528009946 0.036564078411645759 -0.048879026750406888 0.0070712059634002317 -0.020900764086904146 -0.048099198628309747 -0.023331796744422553 -0.048295867834736862 0.023147468497874801 0.026097832235230191 0.0644692772796948 0.070971674539767229 -0.051132241474740131 -0.050252473550439047 0.029584331393440702 0.04863905794472119 0.038873985514713105 0.068695982097930403 0.027231189106249384 -0.025154037404603199 -0.044157373196368289 -0.014186746980230466 0.070857008101359614 0.059272881162539516 0.025851327195220299 -0.048959789176690534
leaf_weight=69.652878731489182 57.746075868606567 54.568190366029739 137.14301887154579 21.26741948723793 50.76517179608345 74.801614552736282 55.281806498765945 35.101727068424225 166.00851285457611 17.547467917203903 112.45599415898323 23.406439661979675 22.460930228233337 37.701250284910202 233.92172008752823 640.64641347527504 14.251942425966261 8.0226282179355604 26.734464854001999 118.05196702480316 47.567946761846542 149.13700690865517 33.765452802181244 64.556063830852509 1860.1557930707932 40.573710769414902 22.382518708705902 94.988079756498337 29.784504920244217 8.4699126780033094
leaf_count=208 167 169 406 65 148 216 170 103 507 55 338 73 67 109 668 1806 42 24 79 344 139 421 97 201 5852 122 63 272 90 26
internal_value=-3.48724e-05 -0.0299932 0.0456712 0.0242562 -0.0366127 0.046493 0.00620707 0.0137682 -0.0395789 0.0281066 -0.00178275 0.00963782 -0.0420618 0.0334574 0.0523011 0.0657698 0.0520848 0.0281547 0.0211224 0.039112 0.0149052 0.0585012 0.0597721 -0.0126864 -0.0433968 0.0031989 0.0395264 0.0498468 -0.0152471 0.00928739
internal_weight=4328.92 2614.94 1713.98 829.813 2347.48 371.779 458.035 402.753 2206 267.458 249.599 141.48 2001.74 249.91 350.511 884.164 243.518 82.8242 118.073 153.154 117.221 229.266 267.687 87.017 1914.72 67.3082 80.1286 132.689 204.263 38.2544
internal_count=13047 8117 4930 2431 7334 1070 1361 1191 6912 783 744 422 6289 728 1005 2499 693 240 349 447 347 651 765 268 6021 201 230 381 623 116
is_linear=0
shrinkage=0.05


Tree=7
num_leaves=31
num_cat=0
split_feature=83 81 81 82 82 9 18 60 8 79 81 19 87 19 15 46 5 18 27 33 23 65 19 4 91 74 55 39 47 74
split_gain=2049.65 461.292 433.416 224.921 135.513 84.9951 73.4902 58.3744 46.7091 32.7946 31.9616 31.2569 31.0667 33.0579 28.0765 27.4245 31.194 24.6605 24.5116 24.0046 23.2301 21.1693 20.9819 20.2333 19.9406 19.6545 18.0383 17.9263 16.8598 16.6871
threshold=-0.72146004014465803 -0.17654545475729103 0.52654243865786032 0.047073292643571199 0.047073292643571199 -0.094343125673159847 0.26192379076228312 0.19480872785883738 -0.16337245852875057 0.42713855990167382 -0.87948083521243647 0.12620873153021814 0.4163027633295649 0.12631882815460557 -0.11301455252813876 -0.24739704131612103 -0.44537270906936177 0.61157294682231345 0.24143571633498387 -1.0974459455235659 0.71287847751392153 0.045420537382103873 0.080884175516694093 -0.072966833552401786 0.62881897814438614 -0.83484499581730132 -0.79203003741290379 -0.45838788847458173 -0.39960335655784174 -0.89384963237058213
decision_type=2 2 2 2 2 2 2 2 2 2 2 2 2 2 2 2 2 2 2 2 2 2 2 2 2 2 2 2 2 2
left_child=1 10 8 5 6 7 11 14 12 26 -1 -3 13 -2 -4 16 -7 -5 19 -8 -11 -9 -12 -13 -24 -15 -6 -19 -29 -20
right_child=2 4 3 17 9 15 18 21 -10 20 22 23 -14 25 -16 -17 -18 27 29 -21 -22 -23 24 -25 -26 -27 -28 28 -30 -31
leaf_value=-0.032709057731254279 -0.026069461384263311 -0.0050924809225413523 0.013886126465091415 -0.036026791614583734 0.017210510145648665 0.057207729558747256 0.0060925206855236098 -0.0020872604762183769 -0.042199128303240713 0.017965538689836785 -0.031472787678572721 0.057138780736208664 -0.040903949420926011 -0.039037979443303811 0.063296648448660481 -0.024060066138848105 -0.015460541319584263 -0.039714992491448775 0.039289217176451112 0.061450231842599005 0.072302681212403561 0.07255326572471324 -0.024621558826178509 0.024956304632488477 0.023183964734574611 0.023864192855796565 -0.029546591680116353 0.048033593072124153 -0.0068776664959133696 0.076836309615824813
leaf_weight=119.36602678894997 140.74307504296303 32.104727804660797 33.728319019079208 211.60744857788086 40.739768177270889 29.801232218742371 22.944304287433624 74.13399463891983 1604.4801630079746 53.871314227581024 36.646097123622894 163.56732547283173 141.30082044005394 14.988462835550306 194.80123764276505 77.238420903682709 29.275336176156998 31.971221953630447 30.942371636629105 133.67069074511528 30.981945097446442 10.895550608634947 28.665319055318832 69.629578799009323 91.255809307098389 72.428964495658875 41.782401502132416 17.432317078113556 70.561577022075653 677.85553228855133
leaf_count=370 431 96 99 653 122 87 66 218 5023 160 112 475 437 46 560 230 86 98 89 381 90 32 88 205 271 218 126 53 215 1910
internal_value=-2.90304e-05 0.0454888 -0.0260312 0.00548603 0.0579685 0.0285153 0.064184 0.0428448 -0.0385083 0.0159792 -0.0132199 0.0411616 -0.0224801 -0.0110701 0.0560042 -0.00444642 0.021197 -0.0257598 0.0712417 0.0533403 0.0378053 0.00747706 0.00163848 0.0475295 0.0117568 0.0130791 -0.00646342 -0.00764972 0.00400071 0.0751972
internal_weight=4329.41 1574.02 2755.39 781.447 1298.09 449.874 1130.71 313.559 1973.94 167.375 275.933 265.302 369.461 228.161 228.53 136.315 59.0766 331.573 865.413 156.615 84.8533 85.0295 156.567 233.197 119.921 87.4174 82.5222 119.965 87.9939 708.798
internal_count=13047 4561 8486 2331 3720 1312 3222 909 6155 498 841 776 1132 695 659 403 173 1019 2446 447 250 250 471 680 359 264 248 366 268 1999
is_linear=0
shrinkage=0.05


Tree=8
num_leaves=31
num_cat=0
split_feature=84 85 81 83 81 78 81 37 84 84 8 83 84 82 80 3 82 73 18 30 19 15 27 83 10 6 45 88 45 8
split_gain=256.027 325.633 141.698 147.323 117.089 82.3045 76.8083 67.7295 62.0963 47.3794 42.9342 39.33 36.5038 34.6323 21.4513 19.3956 23.2314 21.8604 21.5693 16.5332 16.0634 15.7216 14.8002 14.0241 13.2071 12.2515 12.1644 11.3235 11.0651 9.78888
threshold=1.1074043427369484 -1.2265120085707528 -0.87948083521243647 -1.1185997875736449 0.54294685372891205 1.2772857284578796 1.2288749869551674 -0.53147939880949457 0.37389327779369302 0.34163906731177013 0.45193325298939935 -0.72146004014465803 -0.42418023506210922 -0.32602086608707148 -0.62016219179188881 -0.6948381010346748 -0.32602086608707148 1.3643099332245321 0.90713297268999782 -0.45999825240265885 0.98047532530318426 0.26863671522554416 -0.49801178241475946 0.62695097352657392 -0.65843275412633473 -1.2986899666910821 0.98970743336340705 0.87750826030770024 -0.62693607524226225 -0.16337245852875057
decision_type=2 2 2 2 2 2 2 2 2 2 2 2 2 2 2 2 2 2 2 2 2 2 2 2 2 2 2 2 2 2
left_child=1 4 8 10 15 6 -5 19 9 12 13 22 -3 -4 -13 24 18 -18 -17 27 -12 29 -9 -11 -1 -26 -23 -6 -7 -2
right_child=21 2 3 5 7 28 -8 11 -10 23 20 14 -14 -15 -16 16 17 -19 -20 -21 -22 26 -24 -25 25 -27 -28 -29 -30 -31
leaf_value=-0.021404689143993825 -0.0082068795708781211 0.0016941675201477182 -0.022727514292425442 0.042038345605129111 -0.016150135762098349 0.017738447058749184 0.01415644025633662 0.010646768843658172 0.067261795714236378 -0.011830735825943416 0.040795246887723985 0.043950082507790561 0.074549643044174177 0.017415107000068885 -0.01643180616603002 0.052291083528909536 -0.0067573706688311948 0.049293050448953823 0.0030677969515262326 0.023611889499307443 0.0018157052904355067 0.010389141513309878 -0.039870064633143472 -0.033060189009050438 0.030605534901781934 -0.0081096742815341873 -0.023428439457290326 0.038711741110781558 -0.0089342585486971958 -0.032618010589712407
leaf_weight=72.222297549247742 44.398176491260529 173.34026011824608 232.70945543050766 933.65937224030495 78.365802139043808 55.421863168478012 335.85565119981766 14.90406361222267 26.990610718727112 152.78216063976288 59.213186115026474 16.427818804979324 19.08617028594017 69.858484327793121 140.57548022270203 64.693804711103439 102.13388773798943 20.966696441173553 33.926327019929886 64.926462262868881 47.739412784576416 43.314125150442123 533.37246868014336 158.49340030550957 34.552553445100784 50.011926144361496 68.877637892961502 10.688215881586073 130.29942220449448 547.41545334458351
leaf_count=218 137 521 700 2716 239 164 1001 45 77 464 174 49 54 205 427 190 305 62 102 194 142 131 1657 488 103 150 212 32 386 1702
internal_value=6.37838e-05 0.00541127 0.0161713 0.0226587 -0.0154126 0.030114 0.0346621 -0.0256193 -0.00662413 -0.0105833 -0.00383379 -0.0321785 0.00892047 -0.0134592 -0.0101138 0.00775775 0.0172755 0.00278923 0.0353578 0.00442379 0.0233963 -0.0275334 -0.0384968 -0.0226402 -0.00570186 0.00770913 -0.0103724 -0.00956564 -0.000974745 -0.0307867
internal_weight=4337.22 3633.22 2395.45 1864.76 1237.77 1455.24 1269.52 859.26 530.693 503.702 409.521 705.28 192.426 302.568 157.003 378.507 221.721 123.101 98.6201 153.98 106.953 704.005 548.277 311.276 156.787 84.5645 112.192 89.054 185.721 591.814
internal_count=13047 10865 7092 5488 3773 4267 3717 2643 1604 1527 1221 2178 575 905 476 1130 659 367 292 465 316 2182 1702 952 471 253 343 271 550 1839
is_linear=0
shrinkage=0.05


Tree=9
num_leaves=31
num_cat=0
split_feature=84 81 92 83 11 11 83 92 92 84 84 24 8 83 92 11 83 83 83 8 4 92 63 81 17 82 90 59 65 63
split_gain=2144.6 372.693 256.415 121.525 118.78 94.146 62.7569 52.0219 45.0181 39.2894 35.2058 33.1801 30.4044 28.428 25.8675 25.5083 25.483 21.9133 59.4579 23.4075 19.8924 18.225 15.577 13.3938 13.3552 11.8987 11.7184 11.4762 11.4314 10.6079
threshold=0.34163906731177013 -0.87948083521243647 -0.96334086529829455 0.64442140037714679 0.83322754062616056 0.026296262903260609 0.64442140037714679 -0.27040667273702879 -0.27082501853539431 -0.42418023506210922 -0.42418023506210922 -0.94562132933427823 0.71303717361514873 -0.038490352264315825 -0.27082501853539431 0.83322754062616056 -0.72146004014465803 1.3264038019926205 0.64763060873152234 -0.16337245852875057 1.0182442049985732 -0.18559066242768132 -0.9135927895412802 -0.17696695724230307 -0.32334792611823682 0.83456035447854937 -0.40558126134798955 0.78257233915871016 -1.071756143992088 -1.0926673507049054
decision_type=2 2 2 2 2 2 2 2 2 2 2 2 2 2 2 2 2 2 2 2 2 2 2 2 2 2 2 2 2 2
left_child=1 9 17 7 5 6 11 12 -6 13 21 -4 29 20 -8 25 -10 18 19 27 24 -5 -18 -14 -1 -9 -21 -2 -23 -3
right_child=2 3 4 10 8 -7 14 15 16 -11 -12 -13 23 -15 -16 -17 22 -19 -20 26 -22 28 -24 -25 -26 -27 -28 -29 -30 -31
leaf_value=0.023623711114683366 0.041941121308086596 0.001315096526159909 0.03937113281747668 0.04254112269854525 -0.049170644442622202 -0.048973154423930881 -0.048409889782269622 -0.04359158225101447 0.0083074457273877734 -0.047048417290336861 -0.047524891835742968 -0.0092854895093041692 -0.04827999741818035 0.050773137390303757 0.041638136055206804 -0.020768379716670827 0.069598662198850803 0.069721912496919433 -0.050832759984933064 0.066289369467752574 0.046435027758246372 0.028220677591601115 0.045454189799079607 0.022253434167026808 -0.012245446265575867 -0.016351694271460156 0.047373128268635871 -0.006576611758532064 -0.013805180112523444 -0.032293543882049164
leaf_weight=50.727687388658524 39.778855293989182 27.746757209300995 42.343362718820572 51.498454332351685 12.072337359189985 64.665937304496765 8.3495783507823926 1732.6074500977993 34.215813726186752 17.033229112625122 22.925311207771301 203.0733048915863 7.6849651932716361 108.34252175688744 177.90872210264206 139.67321249842644 102.75405994057655 417.15403226017952 13.136414527893065 301.83592030405998 40.918516427278519 26.998052656650543 190.92458543181419 54.196558237075806 53.130125939846039 41.038768887519836 112.34614750742912 17.572180479764938 40.385970026254654 152.61702856421471
leaf_count=147 113 85 124 148 37 199 26 5602 100 55 73 610 24 308 504 432 289 1148 39 835 118 79 542 164 155 129 313 51 122 476
internal_value=-6.12673e-05 -0.0290953 0.0428271 -0.0356278 0.0228847 0.00728967 0.015718 -0.0385773 0.045653 0.0264567 0.00920716 -0.00089044 -0.0167476 0.0314031 0.0376015 -0.0413412 0.0491442 0.0613208 0.0540899 0.057013 0.0169076 0.0201474 0.053902 0.013494 0.00527427 -0.0429613 0.0611584 0.0270754 0.00303288 -0.0271233
internal_weight=4305.66 2567.52 1738.13 2297.37 836.308 496.341 431.675 2155.56 339.967 270.152 141.808 245.417 242.245 253.119 186.258 1913.32 327.894 901.824 484.67 471.533 144.776 118.882 293.679 61.8815 103.858 1773.65 414.182 57.351 67.384 180.364
internal_count=13047 8117 4930 7334 2431 1463 1264 6912 968 783 422 734 749 728 530 6163 931 2499 1351 1312 420 349 831 188 302 5731 1148 164 201 561
is_linear=0
shrinkage=0.05


Tree=10
num_leaves=31
num_cat=0
split_feature=84 81 92 82 83 85 18 92 19 83 82 8 67 28 21 19 91 28 15 27 27 10 70 43 54 54 23 90 15 90
split_gain=1915.6 487.15 178.916 154.171 131.665 81.5457 75.8485 70.9307 50.1168 43.2021 37.0492 30.6135 30.3658 29.0354 29.3469 27.493 27.2738 24.7323 23.3323 26.1907 20.9711 21.0059 20.0492 25.2245 21.8871 18.472 18.3083 18.2941 18.0113 16.6451
threshold=-0.42742221481109127 0.52654243865786032 0.4221308426554497 0.047073292643571199 -0.72146004014465803 -0.48849070774664266 0.25543860685100978 -0.27040667273702879 -0.053296390481161034 -0.74813187402076819 0.036075712858943572 -0.32354984205005027 -0.41720612946330665 0.29719459681932031 -0.29130046874501025 -0.053296390481161034 0.9433783340482701 0.43797640301368884 0.59727952949282381 -0.41441568118157379 0.24143571633498387 0.19401321369006147 -0.60933038592819133 -0.2917289511045657 -0.33154607519522167 1.0963713873139234 -0.0055869714878026824 1.0910476988274815 -0.12677099211758011 0.92892329125595341
decision_type=2 2 2 2 2 2 2 2 2 2 2 2 2 2 2 2 2 2 2 2 2 2 2 2 2 2 2 2 2 2
left_child=1 4 10 6 7 16 15 -1 -9 29 11 20 13 14 -7 -3 26 -17 19 -8 -2 -22 -6 24 -24 -10 -4 -28 -18 -5
right_child=2 3 5 9 22 12 18 8 25 -11 -12 -13 -14 -15 -16 17 28 -19 -20 -21 21 -23 23 -25 -26 -27 27 -29 -30 -31
leaf_value=-0.028954771558190324 -0.017668990601769064 -0.01506003678499921 -0.021597222647350443 0.0078129846240877904 -0.043732106986972302 -0.01836717103894565 -0.031183584208288082 -0.020330060759843716 0.04685072640731916 -0.016285380620689162 -0.041302676123281937 -0.033522140561682172 -0.031359604742373481 -0.033330520162715142 0.031846056911567472 0.049911655194735061 0.0027468084477831824 0.012916910814562818 0.070849656438081318 0.055582247603101514 0.048919304689844519 -0.037844117005365552 0.036030704687328767 -0.029250038197416763 -0.022094188668131072 -0.012200115236659051 0.0021908150964573474 0.050354980633261472 0.064874543046674046 0.054557503215173733
leaf_weight=56.092138797044754 63.622643440961838 23.47936949133873 36.443283975124359 32.837289899587631 98.883962482213974 50.453007578849792 9.0943340063095075 36.948931932449341 194.88042783737183 87.048899084329605 1490.1147429645061 199.7766130566597 214.99356481432915 54.979283839464188 68.747402489185333 197.9261956512928 15.676988363265989 58.539668887853622 701.72644257545471 199.26860955357552 30.119075536727905 9.0788362026214582 35.116873264312744 123.00628647208214 30.059068918228149 14.209064811468123 50.701821506023407 32.259214371442795 45.5931695997715 45.33939653635025
leaf_count=174 195 69 109 96 309 155 26 111 555 264 4802 633 668 170 206 562 46 170 1933 555 87 28 104 380 93 42 150 94 132 129
internal_value=-5.47917e-05 0.0367011 -0.030306 0.0532025 -0.0012552 -0.00590093 0.0594862 0.0217841 0.0333516 0.00794391 -0.0380636 -0.0221128 -0.0187884 -0.00327153 0.0105927 0.0367264 0.0218587 0.0414674 0.0664872 0.0517952 5.52011e-05 0.0288236 -0.0255035 -0.0159249 0.00922357 0.0428378 0.0079429 0.0209193 0.0489781 0.034923
internal_weight=4307.02 1944.46 2362.56 1355.26 589.197 569.848 1190.03 302.131 246.038 165.226 1792.71 302.597 389.173 174.18 119.2 279.945 180.674 256.466 910.089 208.363 102.821 39.1979 287.066 188.182 65.1759 209.089 119.404 82.961 61.2702 78.1767
internal_count=13047 5572 7475 3804 1768 1730 3315 882 708 489 5745 943 1199 531 361 801 531 732 2514 581 310 115 886 577 197 597 353 244 178 225
is_linear=0
shrinkage=0.05


Tree=11
num_leaves=31
num_cat=0
split_feature=84 84 81 81 81 81 78 82 84 9 84 16 84 19 86 18 91 14 15 43 61 15 20 71 74 7 11 17 21 48
split_gain=233.231 297.223 116.695 150.549 81.1377 72.7381 60.6515 56.8245 56.542 52.5934 41.0148 40.9202 34.6626 30.5327 25.9916 25.0803 18.6063 16.5625 15.4666 15.4639 14.2027 14.0678 13.4357 13.169 11.8132 11.243 10.5156 10.4031 10.0291 9.04928
threshold=1.1074043427369484 -1.1903978357337903 -0.87948083521243647 1.1942259455787274 0.52654243865786032 -0.17696695724230307 1.2358919963955142 0.021211222793502408 0.37389327779369302 -0.099849104635480176 0.34163906731177013 -0.017168669382181766 -0.42418023506210922 0.14880706003151292 -0.35069205382633489 0.1509280972297152 0.38323431454237294 -0.50798997939817325 -0.12199560063688729 0.98112967618617197 -1.1065693208243774 -0.80226172402114693 -0.38584794929189753 0.93989668216269429 1.4529417561092697 0.092210056946045768 0.02453319827544265 -0.93024579509353644 1.2218365883422262 -0.73480057849968883
decision_type=2 2 2 2 2 2 2 2 2 2 2 2 2 2 2 2 2 2 2 2 2 2 2 2 2 2 2 2 2 2
left_child=1 4 8 5 13 23 -7 9 10 -5 12 14 -3 19 25 20 -15 -2 -9 28 -13 -12 -17 -4 -16 -6 27 -19 -1 -18
right_child=17 2 3 7 11 6 -8 18 -10 -11 21 15 -14 16 24 22 29 26 -20 -21 -22 -23 -24 -25 -26 -27 -28 -29 -30 -31
leaf_value=0.051000266526653681 -0.031700761433564956 0.00019292475442708791 0.064115504703070092 -0.019230038761865912 -0.023048636579876373 0.027884800175158955 -0.0042769527866600172 0.0022149649459075852 0.063132728793623277 0.017025653689143497 -0.028398713257973586 0.036567540723659718 0.069273523490215261 0.046713466601821657 0.081917263370512375 -0.0058049518006229412 0.0094071860481016126 -0.023942800901734042 0.026490096351407852 -0.01029793057827337 -0.020367790093348041 -0.0069348863896156925 -0.041394535976785531 0.027819941436483326 8.6207591934228748e-05 0.021312389353469113 -0.019569322869957335 0.034812904949432628 -0.013096958786080169 -0.027276116361474912
leaf_weight=53.334113210439682 476.18805515766144 206.31505554914474 145.62681144475937 370.29326060414314 64.083560228347778 1087.2289792001247 169.43384894728661 99.414139419794083 27.52785649895668 137.04818034172058 226.72935810685158 16.096996426582336 19.9113809466362 12.690101176500319 11.971550375223162 28.194032222032547 22.499948352575302 12.428761601448061 193.00521641969681 17.029264837503433 34.278830111026764 115.09134384989738 446.33216387033463 30.168235540390015 6.9828090071678153 18.379455000162125 183.92528048157692 19.127955079078674 6.8912469148635855 66.502389937639236
leaf_count=155 1507 620 410 1137 198 3148 501 293 77 412 705 48 55 37 35 88 67 39 565 50 104 353 1422 86 21 56 577 59 21 201
internal_value=0.000115565 0.00518194 0.0128136 0.0180602 -0.0216177 0.0277626 0.0235485 0.000682087 -0.00685039 -0.00943629 -0.0102418 -0.0301012 0.00627307 0.00807483 -0.00102596 -0.0357189 -0.00992667 -0.026496 0.0182373 0.0317707 -0.00217478 -0.0211718 -0.03928 0.0578868 0.0517706 -0.0131614 -0.0149942 0.0116717 0.043666 -0.0180025
internal_weight=4324.73 3633.06 2827.79 2232.22 805.266 1432.46 1256.66 799.761 595.575 507.341 568.047 626.319 226.226 178.947 101.417 524.902 101.692 691.67 292.419 77.2546 50.3758 341.821 474.526 175.795 18.9544 82.463 215.482 31.5567 60.2254 89.0023
internal_count=13047 10865 8362 6552 2503 4145 3649 2407 1810 1549 1733 1972 675 531 310 1662 305 2182 858 226 152 1058 1510 496 56 254 675 98 176 268
is_linear=0
shrinkage=0.05


Tree=12
num_leaves=31
num_cat=0
split_feature=84 92 92 92 92 84 20 8 11 81 54 45 5 5 17 17 8 8 84 84 23 91 84 8 82 69 6 14 14 82
split_gain=1941.08 347.734 224.885 110.004 113.229 92.4041 73.3378 65.9075 64.9704 44.0963 35.9575 27.8453 22.3213 20.9177 20.6426 26.6338 19.8887 55.4562 19.5831 19.3317 16.0183 15.7921 14.3195 13.7004 13.5991 13.3165 11.2565 10.9018 10.2007 9.7509
threshold=0.34163906731177013 -0.27040667273702879 -0.96334086529829455 -0.27082501853539431 -0.27040667273702879 -0.42418023506210922 -0.84769029881918301 0.71303717361514873 0.83322754062616056 -0.87948083521243647 1.1385284268379465 0.17134117447004524 1.2128084398273404 -0.777473286239173 -0.36447605040114778 0.35150468038063082 0.71303717361514873 -0.15900502033587963 -0.42742221481109127 -0.42742221481109127 0.088643248822427925 0.75604827699656085 -0.42742221481109127 -0.16337245852875057 0.83456035447854937 -0.069567276364042502 0.17512884267442488 -0.43485973715099874 0.14750076332505022 0.83456035447854937
decision_type=2 2 2 2 2 2 2 2 2 2 2 2 2 2 2 2 2 2 2 2 2 2 2 2 2 2 2 2 2 2
left_child=1 5 16 -4 14 7 20 9 12 22 -8 -11 24 29 -5 -16 17 23 -15 -14 -6 25 -1 27 -3 -10 -27 -2 -21 -9
right_child=2 8 3 4 6 -7 10 13 21 11 -12 -13 19 18 15 -17 -18 -19 -20 28 -22 -23 -24 -25 -26 26 -28 -29 -30 -31
leaf_value=0.0059847306983021242 0.046973053094178603 -0.042480169372096317 -0.048090123160467617 0.058686580688965012 0.050575236938362016 -0.047364048263194833 -0.012729935377348895 -0.015981142936836012 -0.013270438534373661 -0.030119160182350516 0.037240257932815164 0.012151544814183035 -0.033035867428963188 0.027118752562272436 -0.050005942704172357 0.039258231311608417 0.06193491912923265 -0.05095297602494523 0.063751312968564525 0.053365856407067536 0.01981039309802423 -0.026959572310627091 0.047135857835803159 0.059913736592186718 -0.01567441246378937 0.0024396885077526669 0.050928736771027529 0.0077381269681166326 -0.0057859465033045024 0.035937906673538994
leaf_weight=36.950620770454407 56.361294656991959 1679.9536068439484 53.06579053401947 198.78084671497345 90.071463167667389 63.631956607103348 243.83867195248604 21.296680569648743 62.392481595277786 105.268449395895 42.236107140779495 61.849769115447998 62.229737967252731 63.809967517852783 8.9559358656406385 124.82488420605659 664.12748181819916 14.091619610786436 85.188363462686539 11.145546644926069 79.792176932096481 79.234176367521286 49.405348062515259 154.60249501466751 48.685795217752457 30.785066962242126 19.582302778959274 25.813634037971497 21.060729265213013 15.717749446630476
leaf_count=107 157 5568 167 555 253 204 728 63 191 331 120 187 204 186 27 355 1806 42 241 34 226 248 138 421 152 94 58 73 66 45
internal_value=-9.44021e-05 -0.0282344 0.0402468 0.0215923 0.0262819 0.00894986 0.0100999 0.0171034 -0.0375185 0.000516328 -0.00535233 -0.0144749 -0.0404321 0.0397061 0.0484672 0.0332825 0.0574043 0.0454102 0.0480631 -0.0167614 0.0361237 -0.00985284 0.0295278 0.0511452 -0.0417252 0.00216772 0.0212917 0.0346482 0.0146846 0.00606568
internal_weight=4274.75 2518.19 1756.56 841.566 788.5 503.119 455.938 439.487 2015.07 253.474 286.075 167.118 1823.08 186.013 332.562 133.781 914.997 250.869 148.998 94.436 169.864 191.994 86.356 236.777 1728.64 112.76 50.3674 82.1749 32.2063 37.0144
internal_count=13047 8117 4930 2431 2264 1502 1327 1298 6615 763 848 518 6024 535 937 382 2499 693 427 304 479 591 245 651 5720 343 152 230 100 108
is_linear=0
shrinkage=0.05


Tree=13
num_leaves=31
num_cat=0
split_feature=92 83 83 82 8 81 80 82 81 8 19 43 76 8 4 25 15 45 37 24 54 4 78 54 74 18 91 83 76 11
split_gain=1742.34 484.469 150.683 122.102 102.534 87.2396 58.6666 58.358 49.2 44.3015 39.7913 32.9649 32.5204 27.1886 25.5877 25.2744 24.8541 33.0509 23.9016 23.4143 21.6784 20.8648 20.2784 18.504 18.2814 16.7143 16.8254 16.7074 16.6551 16.0187
threshold=0.4221308426554497 -0.72146004014465803 -0.72146004014465803 0.047073292643571199 0.52592164369030758 0.60754900268126966 -0.62895935424724603 0.047073292643571199 -0.15728586954483484 -0.16337245852875057 0.23334731953187873 -0.28386651402703394 1.0000000180025095e-35 -1.0532212263435514 -0.072966833552401786 0.75347674664909248 -0.11958195030256943 -0.65245940261543312 0.82008991476534543 0.74967046398630266 -0.28243996689279899 0.7001358955416852 0.7903960167437255 0.32936759643247593 0.57217550763819502 0.36908374766195173 1.2183453353341598 0.091604318932734657 -0.15845412631874886 -0.82239017218112265
decision_type=2 2 2 2 2 2 2 2 2 2 2 2 2 2 2 2 2 2 2 2 2 2 2 2 2 2 2 2 2 2
left_child=2 4 7 5 8 13 -7 11 18 16 -6 -1 -8 -3 -10 -5 -4 24 -2 -13 21 -12 -19 29 -18 26 -17 -27 -16 -9
right_child=1 3 9 15 10 6 12 23 14 -11 20 19 -14 -15 28 25 17 22 -20 -21 -22 -23 -24 -25 -26 27 -28 -29 -30 -31
leaf_value=0.041219745876983356 -0.013777644251358754 0.034178515034969457 -0.033388191224935991 -0.033427086373721875 -0.018323554012898792 -0.024466239936318777 -0.0072827439732127772 0.045366026185187799 0.06539310864980806 -0.040690860382747884 0.05347060319433769 -0.01438876016624962 0.044218808635287467 -0.019306266433921249 -0.013002288972945558 -0.034505348978400276 0.058626862067004432 -0.029538829263336466 0.052334053928657635 0.034327074169734254 0.0035561353269291372 -0.020343169816060394 0.021796086434441028 -0.038917066112931685 -0.0087755390751707088 0.044853672602124112 0.045399885662702255 -0.023059719096386284 0.049172118372332152 -0.016090670402871942
leaf_weight=80.587949901819229 33.420107662677765 28.070661306381226 192.61601138114929 196.13740402460098 51.806333780288696 41.649816781282425 34.370883882045746 13.011986464262007 782.39212787151337 1480.4053237438202 89.67835745215416 84.512243926525116 283.27116903662682 154.76871371269226 11.378372132778166 39.904610008001328 24.955840021371841 102.03587254881859 23.135453939437866 34.830305099487305 44.166855692863464 10.717882066965101 23.707127571105957 90.397673040628433 16.854194104671478 27.220976859331131 7.8907383978366843 13.570837557315825 201.85247355699539 57.271215885877609
leaf_count=233 99 83 615 616 154 124 100 39 2141 4884 249 255 796 477 33 125 74 322 66 103 128 31 72 288 51 81 24 42 562 180
internal_value=-8.49132e-05 0.0327825 -0.0310742 0.00309731 0.0524416 0.0170217 0.0313299 -0.00151917 0.0586316 -0.0368647 0.0192744 0.0165128 0.038646 -0.0110949 0.0612085 -0.0234155 -0.0211379 -0.0070552 0.013267 -0.00017097 0.0327482 0.0455906 -0.0198603 -0.0239558 0.031456 -0.0012492 -0.0213135 0.0222599 0.0458544 -0.00471279
internal_weight=4276.59 2075.4 2201.19 826.856 1248.55 542.131 359.292 360.611 1052.18 1840.57 196.369 199.93 317.642 182.839 995.623 284.725 360.169 167.553 56.5556 119.343 144.563 100.396 125.743 160.681 41.81 88.5872 47.7953 40.7918 213.231 70.2832
internal_count=13047 5931 7116 2468 3463 1580 1020 1098 2901 6018 562 591 896 560 2736 888 1134 519 165 358 408 280 394 507 125 272 149 123 595 219
is_linear=0
shrinkage=0.05


Tree=14
num_leaves=31
num_cat=0
split_feature=84 85 85 18 83 81 9 92 85 9 35 81 38 25 47 16 4 92 8 72 19 84 53 6 22 8 81 1 63 53
split_gain=212.277 272.98 122.807 101.671 98.4908 78.1386 80.9603 56.5201 32.4026 31.2083 29.9764 23.5349 19.8703 16.8012 16.7355 15.2005 15.0422 14.7122 14.0542 13.9676 11.9817 22.3213 12.5517 10.7699 10.4993 9.79541 9.50659 9.32205 9.05993 9.04255
threshold=1.1074043427369484 -1.2265120085707528 1.0102651384753736 0.25543860685100978 -1.4012944109011931 -0.87948083521243647 -0.72347449980911682 0.4221308426554497 0.26473499261315708 -0.094343125673159847 0.55074647524347442 -0.17654545475729103 -0.73526553056623223 0.27043240237301741 1.0186866889964488 -0.77722517659877677 0.3477880619101103 -0.93487502001200251 -0.2894603168939005 -0.30082304978597046 0.12620873153021814 -0.21338054342823612 -0.52371661954932369 0.12063161006501288 -1.0322655894599009 -1.5558985755528334 -0.78478322627230568 -0.35055689175528598 0.4251622710981901 0.20135513819218295
decision_type=2 2 2 2 2 2 2 2 2 2 2 2 2 2 2 2 2 2 2 2 2 2 2 2 2 2 2 2 2 2
left_child=1 3 4 14 11 8 -7 13 -6 16 19 -3 -13 26 20 -12 -9 23 -11 -4 21 -1 -22 27 -19 -17 -5 -2 -26 -21
right_child=17 2 10 7 5 6 -8 9 -10 18 15 12 -14 -15 -16 25 -18 24 -20 29 22 -23 -24 -25 28 -27 -28 -29 -30 -31
leaf_value=0.036830939082505364 0.011841049543363008 0.015462174101546829 -0.029828030333656122 -0.013154818500963459 -0.0053043295734511945 0.014207352890904957 0.038267274368751159 -0.038895073428744015 0.050748483845513018 -0.032677668048561551 -0.0098532511495873359 0.029534957151199401 -0.020950531202781342 -0.017016828467505674 0.021921392602756506 -0.015664319211198846 -0.014247900860851976 -0.028275108008428793 0.0050327921501515382 0.0067545633439035002 -0.016051621129737497 -0.029258846653260097 0.0063483926485556289 -0.032797643535340683 -0.015262464744857178 0.043051677638491409 0.029974616876899285 -0.028256748831591339 0.013565201124400196 -0.020200524058042457
leaf_weight=46.545832097530365 26.712354362010956 83.311323374509811 155.92558881640434 16.277972042560577 260.24947160482407 580.06922620534897 880.17765539884567 479.14225724339485 28.617570072412491 36.227615058422089 37.78330460190773 21.680506229400635 192.90016567707062 48.4261374771595 111.81447815895081 8.6584868729114515 71.088077872991562 74.67947456240654 77.695290237665176 59.328952878713608 133.03107038140297 17.609283030033112 118.01894751191139 430.72039783000946 71.08495020866394 39.542290687561035 59.40010929107666 31.690979242324829 44.203070491552353 65.42286479473114
leaf_count=133 84 246 478 49 797 1690 2514 1554 80 115 115 64 590 146 331 26 225 237 240 178 402 54 350 1400 222 116 174 102 137 198
internal_value=0.000177966 0.00497923 0.0147099 -0.014347 0.0194832 0.0240094 0.0287097 -0.0249914 0.000248728 -0.0307789 -0.0119384 -0.00709268 -0.0158496 0.00598128 0.00530209 0.0138915 -0.0357107 -0.0254792 -0.00695918 -0.0198512 -0.000593373 0.0186906 -0.00552134 -0.0300656 -0.0136701 0.0325043 0.0206977 -0.00991693 -0.00420953 -0.00738134
internal_weight=4308.04 3628.94 2413.67 1215.28 2047.01 1749.11 1460.25 788.257 288.867 664.153 366.661 297.892 214.581 124.104 427.02 85.9841 550.23 679.091 113.923 280.677 315.205 64.1551 251.05 489.124 189.967 48.2008 75.6781 58.4033 115.288 124.752
internal_count=13047 10865 7092 3773 5981 5081 4204 2503 877 2134 1111 900 654 369 1270 257 1779 2182 355 854 939 187 752 1586 596 142 223 186 359 376
is_linear=0
shrinkage=0.05


Tree=15
num_leaves=31
num_cat=0
split_feature=92 83 8 8 11 83 15 83 92 4 85 63 83 25 90 50 11 3 92 17 45 90 83 8 90 9 21 21 63 75
split_gain=1743.93 278.09 216.464 174.032 134.154 99.1609 51.1926 43.9596 39.5988 37.6678 30.2972 28.3549 27.9306 25.1272 24.4698 21.0584 19.533 18.4607 18.0492 16.5785 15.8192 15.2612 14.4699 14.3895 11.3172 11.0959 10.7079 9.45187 9.20207 8.12676
threshold=-0.27040667273702879 0.64442140037714679 0.71303717361514873 -0.15900502033587963 0.83322754062616056 0.64442140037714679 -0.85031928316276117 0.64442140037714679 0.42185780899934633 1.0182442049985732 -0.48118083734866696 -1.0926673507049054 -0.037105224703538227 -0.71493912391741044 -0.46263192230794492 -1.2176379620303568 0.83322754062616056 1.0599433459083873 0.42185780899934633 -1.0425544898824954 -1.4623243816755169 0.19896705792926833 1.3264038019926205 -0.16337245852875057 0.20952273468425614 1.2488630953353861 0.49040938882138496 0.44830836340846175 -1.0926673507049054 0.063989679347102105
decision_type=2 2 2 2 2 2 2 2 2 2 2 2 2 2 2 2 2 2 2 2 2 2 2 2 2 2 2 2 2 2
left_child=2 4 3 5 9 6 20 12 -3 15 28 -8 14 -10 -4 24 21 -16 -12 -7 -1 -15 -21 -20 -2 -17 27 -11 29 -6
right_child=1 8 7 -5 10 19 11 -9 13 26 18 -13 -14 16 17 25 -18 -19 23 22 -22 -23 -24 -25 -26 -27 -28 -29 -30 -31
leaf_value=-0.030383004726359367 0.011814923119238454 -0.049179483267037832 0.051609893496238506 -0.048155406425217873 0.054172950387422716 0.060829161346804966 0.026802274554906014 0.059208531224354988 0.045080209209758582 -0.0096891386918946543 -0.049543893188191981 -0.015868188776915433 -0.050148209638241105 0.018963437507069098 0.013169711717836619 -0.041704806423459667 0.039366984509916624 0.047450234506127821 -0.013430151207319333 0.027397914258479851 0.036743075823871318 -0.023270224948399802 0.057937199087481621 0.023847588142851289 -0.028719273165412274 -0.011644908259322068 -0.026259526527429217 0.033598631614482684 -0.029495763966370343 -0.019359847801201476
leaf_weight=9.4285587668418867 27.034140646457672 18.355362743139267 206.23750522732735 91.461736291646957 6.6714748740196219 121.79821789264679 49.746384412050247 674.26281815767288 106.3118799328804 32.871314197778702 11.135251581668852 179.10162875056267 8.780616879463194 43.868648827075958 105.65841093659401 1694.9722868204117 43.980560719966888 62.506310433149338 32.470981448888779 123.95570921897888 126.98962292075157 41.74433109164238 56.451405078172684 127.67784553766251 47.435627788305283 31.265481531620026 44.710104286670685 20.458992511034012 82.386177659034729 8.6025454699993116
leaf_count=28 84 57 568 289 20 331 145 1826 298 102 34 552 27 128 305 5750 124 174 98 348 359 125 153 373 157 99 144 63 259 27
internal_value=-0.000134926 -0.0279101 0.0369004 0.0165259 -0.0337127 0.025389 0.00785953 0.0515233 0.0215595 -0.0383941 -0.000662364 -0.00659259 0.0380001 0.0270636 0.0400674 -0.0400373 0.0122837 0.0259117 0.0120095 0.0465764 0.0321036 -0.00162942 0.036954 0.0162893 -0.0140045 -0.0411604 -0.0082126 0.00691726 -0.0228873 0.0127582
internal_weight=4238.33 2421.95 1816.38 758.933 2167.69 667.472 365.266 1057.45 254.261 1898.75 268.944 228.848 383.183 235.905 374.402 1800.71 129.594 168.165 171.284 302.205 136.418 85.613 180.407 160.149 74.4698 1726.24 98.0404 53.3303 97.6602 15.274
internal_count=13047 7942 5105 2205 7210 1916 1084 2900 732 6399 811 697 1074 675 1047 6090 377 479 505 832 387 253 501 471 241 5849 309 165 306 47
is_linear=0
shrinkage=0.05


Tree=16
num_leaves=31
num_cat=0
split_feature=84 81 92 82 92 85 18 19 91 10 8 10 53 85 9 2 20 35 45 14 20 40 76 12 85 29 20 17 82 50
split_gain=1590.46 388.74 157.106 122.66 84.3201 71.2746 61.3654 60.2608 46.9203 40.6418 34.3573 31.6505 29.826 29.3947 28.3876 27.3534 25.1741 24.668 23.605 21.7739 21.1374 23.019 20.473 19.0543 18.392 18.337 17.0988 16.6007 16.6251 15.8054
threshold=-0.42742221481109127 0.52654243865786032 0.4221308426554497 0.047073292643571199 -0.27040667273702879 -0.48849070774664266 0.25543860685100978 0.093249213023665581 0.72981773188202614 -0.41112842651505016 -0.16337245852875057 -1.1491794641389441 -0.52371661954932369 -1.2347624981187948 -0.210650462895454 0.71035968952606465 -0.46628836367059895 -0.067851093597390319 0.89457065845096695 0.64334532286854318 -0.12236055915562701 0.50770382795806512 0.059229588586743077 -0.64887533332718139 0.19869386906086919 0.30201625376462421 -0.80976273710078572 -0.35612795863920149 -0.21993348237372171 0.56634706441534877
decision_type=2 2 2 2 2 2 2 2 2 2 2 2 2 2 2 2 2 2 2 2 2 2 2 2 2 2 2 2 2 2
left_child=1 4 10 6 -1 16 12 -6 9 -9 11 24 26 -5 15 17 -4 -7 25 -15 21 -8 -14 -10 29 -18 -3 -13 -29 -2
right_child=2 3 5 13 7 14 20 8 23 -11 -12 27 22 19 -16 -17 18 -19 -20 -21 -22 -23 -24 -25 -26 -27 -28 28 -30 -31
leaf_value=-0.031833149295346995 0.078598660576612508 0.0036031315772717658 -0.025947830768124111 0.044647782542640825 -0.028200151519477898 -0.023016081355754718 0.012140769465404848 0.025668397239819153 0.04858180689939548 -0.024297358222243992 -0.039620308492635432 -0.039925542467583758 -0.025911370126021311 -0.028073227809626546 -0.031287640753240781 -0.037647716223064828 0.01205534251284384 0.021476279260246704 -0.021921568182924723 0.013680025383861129 0.061951331826005832 0.056108287100098242 0.02427891540871915 0.013288394012871711 -0.029448950823621041 0.049733765215173246 0.051416858299456594 0.0093903557700376877 -0.02728967652031275 0.0047090216355033824
leaf_weight=163.74035075306892 14.297072976827623 21.328727930784225 25.693247765302658 39.297428667545319 81.401295900344849 46.446793526411057 46.777990937232971 80.190626919269562 121.59147477149963 82.636175513267517 1383.1166208088398 138.45575979351997 26.548103898763657 56.162885457277298 196.71755424141884 45.798349559307098 52.868427187204361 94.612400144338608 20.975220710039139 70.319307208061218 803.11909699440002 81.869495630264282 86.580578505992889 55.789064675569534 13.513537019491194 82.964063942432404 151.61176183819771 45.327413439750671 96.999756276607513 14.656756579875944
leaf_count=530 43 60 79 112 251 144 128 233 342 250 4707 454 77 172 626 147 154 282 63 205 2164 222 245 162 43 235 419 137 316 45
internal_value=-0.000117909 0.0327752 -0.0286182 0.0472256 -0.0013819 -0.0057928 0.0527183 0.0104445 0.0196909 0.000310294 -0.0361904 -0.0215145 0.0324622 0.00687563 -0.0180307 -0.00407425 0.0199285 0.00682621 0.0274454 -0.00486 0.0589373 0.0401211 0.0125007 0.0374815 0.0187153 0.0350687 0.04552 -0.0275992 -0.0156081 0.0411949
internal_weight=4241.41 1968.96 2272.44 1383.62 585.349 566.076 1217.84 421.609 340.207 162.827 1706.37 323.25 286.069 165.78 383.575 186.858 182.501 141.059 156.808 126.482 931.767 128.647 113.129 177.381 42.4674 135.832 172.94 280.783 142.327 28.9538
internal_count=13047 5572 7475 3804 1768 1730 3315 1238 987 483 5745 1038 801 489 1199 573 531 426 452 377 2514 350 322 504 131 389 479 907 453 88
is_linear=0
shrinkage=0.05


Tree=17
num_leaves=31
num_cat=0
split_feature=83 82 85 85 81 83 18 48 19 85 83 35 54 61 81 82 83 2 88 16 4 66 17 77 81 84 8 45 44 84
split_gain=196.241 238.825 115.598 170.194 61.9932 68.9854 51.229 44.9006 48.2437 44.2373 32.3758 22.9556 18.9559 18.3767 16.9461 15.0541 13.5975 13.2854 13.1521 12.7709 12.4858 11.5145 11.5049 11.0021 11.0279 10.3036 10.1618 14.9605 9.79825 9.06899
threshold=1.3264038019926205 -1.5279435720956978 1.0102651384753736 -1.2265120085707528 -0.87948083521243647 -0.72146004014465803 0.29537242479227432 -0.73480057849968883 0.12931822648039562 0.26473499261315708 0.64763060873152234 0.64002104276439464 0.41636799483625442 -0.863285175607441 0.19707431995879801 0.2098805859980972 0.64442140037714679 -1.0314964331730654 0.18730826541671267 -0.65115039791649576 0.11085552009053208 0.31728243920123861 1.0647987434151525 -0.67204311823426355 0.18109709065676968 -1.2065210209744797 0.46613456321364727 -0.20777689695808424 -0.18307613013515883 -1.1389410489773817
decision_type=2 2 2 2 2 2 2 2 2 2 2 2 2 2 2 2 2 2 2 2 2 2 2 2 2 2 2 2 2 2
left_child=1 6 3 7 9 -6 13 15 -9 -5 11 16 26 17 18 -3 -4 25 -15 -13 21 22 -2 -14 -25 -1 -8 -28 -19 -16
right_child=20 2 10 4 5 -7 12 8 -10 -11 -12 19 23 14 29 -17 -18 28 -20 -21 -22 -23 -24 24 -26 -27 27 -29 -30 -31
leaf_value=-0.019177198857248251 -0.01061311356634537 0.025000507492709979 -0.012447176936621111 -0.0036470915833847297 0.0088310655264858123 0.032246118710854359 -0.040913108475624058 0.009817697129798228 -0.020634200808388015 0.056820312424586156 0.073317461432251249 -0.010923486744787029 0.046179761222208793 0.048558367822933809 -0.035085161152698885 -0.0087223237428582321 -0.032008573734389062 0.085010480516812481 -0.030878931839438795 0.024500061646427717 -0.033206247292564599 -0.027137092112656525 0.044834200648317966 0.039970120142435055 -0.029543492426369385 0.038357463521635805 -0.034129662501823969 0.025726018602143325 0.015702033968310505 0.0078847976645442294
leaf_weight=19.722355246543884 34.51779580116272 132.66628316044807 196.87205746769905 307.99475917220116 434.32234153151512 1140.7972211539745 333.70111042261124 182.36808875203133 453.47350254654884 33.541213512420654 10.53811204433441 54.607655912637711 8.958869665861128 16.274864643812183 55.176216304302216 44.092779666185379 161.89199510216713 11.671455651521685 7.6644269824028006 47.641035676002502 389.21200051903725 74.267530053853989 12.833784908056257 7.1166250407695761 28.773989349603653 12.852883011102675 36.379128605127335 14.640674591064451 9.0560294985771161 15.79405230283737
leaf_count=60 109 394 608 953 1281 3237 1106 543 1425 94 30 171 28 47 171 135 520 34 23 142 1269 240 40 21 94 38 116 45 27 46
internal_value=0.000249908 0.00418214 0.00952283 0.0134725 0.0216024 0.0257897 -0.0254043 -0.00570329 -0.0119002 0.00229123 -0.0133371 -0.0153179 -0.0341495 -5.76429e-05 -0.0132518 0.0165883 -0.0212742 0.0234355 0.0231256 0.00558151 -0.0288366 -0.0148525 0.00441487 -0.00338718 -0.0157599 0.00352367 -0.0377357 -0.0169534 0.054729 -0.0255224
internal_weight=4289.42 3778.59 3200.81 2729.26 1916.66 1575.12 577.783 812.601 635.842 341.536 471.551 461.013 429.57 148.212 94.9096 176.759 358.764 53.3027 23.9393 102.249 510.831 121.619 47.3516 44.8495 35.8906 32.5752 384.721 51.0198 20.7275 70.9703
internal_count=13047 11389 9533 8062 5565 4518 1856 2497 1968 1047 1471 1441 1410 446 287 529 1128 159 70 313 1658 389 149 143 115 98 1267 161 61 217
is_linear=0
shrinkage=0.05


Tree=18
num_leaves=31
num_cat=0
split_feature=84 92 92 92 92 84 92 83 11 83 81 5 45 24 9 83 84 22 83 83 91 11 91 74 84 90 67 69 25 91
split_gain=1618.7 301.012 175.737 99.1579 90.9491 82.6105 63.1754 59.7131 59.4277 52.6973 34.4354 21.8001 21.6694 20.576 26.9786 20.5333 17.6323 16.8533 15.6694 48.8176 14.2909 13.5339 13.0578 12.3138 11.9168 10.5307 10.2195 9.82271 9.23925 9.10471
threshold=0.34163906731177013 -0.27040667273702879 -0.96334086529829455 -0.27082501853539431 -0.27040667273702879 -0.42418023506210922 0.42185780899934633 -0.038490352264315825 0.83322754062616056 0.64442140037714679 -0.87948083521243647 1.2128084398273404 0.17134117447004524 -0.95932201153227115 1.2488630953353861 -0.038490352264315825 -0.42742221481109127 0.29117060551321439 1.3264038019926205 0.64763060873152234 -0.66736793473699485 0.83322754062616056 0.016757415567754935 -0.98160307587456308 -0.42418023506210922 -0.30471811209977884 -0.3598636619634728 1.1962505754073527 0.0054320949007584168 1.0500952013347085
decision_type=2 2 2 2 2 2 2 2 2 2 2 2 2 2 2 2 2 2 2 2 2 2 2 2 2 2 2 2 2 2
left_child=1 5 18 -4 13 7 -6 10 11 -8 27 22 -12 -5 -15 -10 -13 26 19 20 -2 -19 23 -3 29 -22 -9 -1 -18 -17
right_child=2 8 3 4 6 -7 9 17 15 -11 12 16 -14 14 -16 24 28 21 -20 -21 25 -23 -24 -25 -26 -27 -28 -29 -30 -31
leaf_value=0.01197808252213528 0.054213789355807479 0.0056539052958533322 -0.047352446725545179 0.060868494876804735 -0.048725211317999048 -0.046521245594696024 0.0014199973683987422 0.028573045825901797 -0.020096178662416857 0.038233475509576342 -0.027816542094072395 -0.031106122378564915 0.014824613372955823 0.025504263646666876 0.067076637748249568 0.036359881486562579 0.040867997237486853 -0.0074931274799710929 0.058107479357543616 -0.050841655550543756 0.044531200242607226 0.042361199118884744 -0.041642651302196645 -0.03254796848744048 -0.047593786802384346 0.018358745871618568 0.056917087843281859 0.046572049336234177 -0.012860711202383999 -0.011956229178165729
leaf_weight=75.628788441419601 305.83488538861275 24.347169458866119 51.892724961042404 114.3060807287693 42.404725909233093 61.945222526788712 256.73630729317665 51.910114526748657 132.46575647592545 156.44867742061615 108.57994565367699 59.333092749118805 41.061139404773712 174.33741390705109 50.281008064746857 37.747007995843887 16.569300383329391 32.674579113721848 429.75656518340111 12.920206815004347 124.70708951354027 23.3350949883461 1453.1205918192863 157.88310262560844 6.5867570638656607 55.554656594991684 82.094702273607254 28.160127639770508 15.473599702119825 13.14616423845291
leaf_count=213 823 78 167 311 132 204 763 147 420 432 344 204 125 489 137 110 51 97 1148 39 337 65 5112 530 21 152 229 78 49 40
internal_value=-0.000178413 -0.0267611 0.0360912 0.0196116 0.0239853 0.00756541 0.00939433 0.0151208 -0.0358124 0.0153591 -0.000766446 -0.0387325 -0.0161159 0.0435987 0.0348103 -0.0092671 -0.0149653 0.0363103 0.0511093 0.0450824 0.047632 0.0132775 -0.0400605 -0.0274439 0.0156891 0.0364651 0.0459373 0.0213642 0.0149223 0.0238794
internal_weight=4197.24 2422.06 1775.18 846.407 794.514 505.39 455.59 443.444 1916.67 413.185 253.43 1726.73 149.641 338.925 224.618 189.946 91.376 190.014 928.773 499.017 486.097 56.0097 1635.35 182.23 57.4799 180.262 134.005 103.789 32.0429 50.8932
internal_count=13047 8117 4930 2431 2264 1502 1327 1298 6615 1195 760 6024 469 937 626 591 304 538 2499 1351 1312 162 5720 608 171 489 376 291 100 150
is_linear=0
shrinkage=0.05


Tree=19
num_leaves=31
num_cat=0
split_feature=92 83 83 9 8 82 19 82 8 84 19 76 13 18 87 3 25 19 15 37 20 22 72 17 25 13 28 37 91 11
split_gain=1450.09 395.586 136.209 107.519 85.5385 73.0993 50.2804 50.0357 41.1963 34.7493 33.9502 32.4536 28.9835 26.4149 25.3806 28.6789 24.8077 24.0969 23.3667 23.0445 21.5595 21.1929 20.8131 20.0319 17.5295 16.6989 15.3334 15.2582 13.9087 13.9048
threshold=0.4221308426554497 -0.72146004014465803 -0.72146004014465803 -0.094343125673159847 0.52592164369030758 0.047073292643571199 0.12631882815460557 0.047073292643571199 -0.16337245852875057 -0.99892799344374217 0.23334731953187873 -0.26902054540753284 0.88017930521983812 0.94064643299001871 0.38633307819128232 -0.2943153839844968 0.7412423318099749 -0.67285449376735962 0.62788776953566561 -0.035511808913230351 -0.1291497964991575 -0.92287182976186555 1.0082903907913494 0.22081282463377835 -0.6867881543906651 0.93363359057832984 0.34161460053741299 0.069084563614405806 1.0547712845420019 0.0063909569412030085
decision_type=2 2 2 2 2 2 2 2 2 2 2 2 2 2 2 2 2 2 2 2 2 2 2 2 2 2 2 2 2 2
left_child=2 4 7 5 9 6 22 12 14 20 -6 -8 17 28 15 21 -5 -1 -18 -11 -2 -4 -3 -21 -12 -26 -15 -19 -7 -9
right_child=1 3 8 16 10 13 11 29 -10 19 24 -13 -14 26 -16 -17 18 27 -20 23 -22 -23 -24 -25 25 -27 -28 -29 -30 -31
leaf_value=-0.031194372272952284 0.040153548059152937 -0.014727961982016686 -0.040657432047510836 -0.029477549117879639 -0.01820462103311667 -0.039045050076541243 -0.029529904317186356 -1.4723443466473188e-05 -0.038972439608814149 0.0027604386067662527 0.0045903704176998754 0.044746807139937027 -0.026113069063286771 0.03716329044639146 -0.036138899876524931 -0.024640193410825618 -0.020813054272307036 0.012487570300361907 0.028054603646989071 0.0070020950206103223 0.060403569943256956 0.023988595241359989 0.034080750800292582 0.052764757228816142 0.048642245201702107 -0.016738092376685013 -0.020185715643669902 0.044828993852098653 0.017571966551413923 -0.032397065433868201
leaf_weight=17.661467105150223 160.93969714641571 75.240115284919739 15.324380517005919 222.09608563780785 51.510924518108368 74.863159120082855 15.645924240350721 47.794670015573502 1401.7219942808151 47.031505793333054 48.9865742623806 244.82750496268272 34.924424290657043 30.114814937114716 141.91508635878563 120.38265526294708 55.888040721416473 65.134993076324463 43.503725230693817 30.323230415582657 717.09650686383247 73.409612327814102 30.775149017572403 113.12596383690834 86.439331531524658 11.010414361953734 19.014728873968124 82.865198940038681 12.685712546110151 108.19177690148354
leaf_count=56 439 225 50 701 154 239 46 149 4884 136 139 680 109 90 473 389 173 191 127 86 1926 222 89 314 237 32 59 235 39 358
internal_value=-0.000154827 0.0293507 -0.0294056 0.0024005 0.0468992 0.0168317 0.02847 -0.0012356 -0.0351364 0.0524921 0.0167087 0.0402852 0.0152813 -0.0143752 -0.0198186 -0.00874301 -0.020186 0.024008 0.000576295 0.0331331 0.0566918 0.0128242 -0.000559291 0.0430911 0.0289899 0.0412552 0.0149674 0.0305955 -0.0308413 -0.022475
internal_weight=4200.45 2091.12 2109.33 824.655 1266.46 503.167 366.489 356.573 1752.75 1068.52 197.947 260.473 200.586 136.678 351.032 209.117 321.488 165.662 99.3918 190.481 878.036 88.734 106.015 143.449 146.436 97.4497 49.1295 148 87.5489 155.986
internal_count=13047 5931 7116 2468 3463 1467 1040 1098 6018 2901 562 726 591 427 1134 661 1001 482 300 536 2365 272 314 400 408 269 149 426 278 507
is_linear=0
shrinkage=0.05


Tree=20
num_leaves=31
num_cat=0
split_feature=84 82 85 85 81 17 82 59 16 18 19 92 83 54 61 27 25 83 54 14 81 92 70 88 80 2 11 73 11 44
split_gain=178.829 232.155 104.538 121.291 78.2241 68.2864 54.543 50.5546 48.1483 45.9327 39.0564 39.6476 24.3342 17.7117 17.3913 16.425 17.5106 16.3973 15.4755 15.1112 15.0905 14.1252 14.2857 13.5126 12.7622 13.5077 10.3049 9.7573 9.47127 9.26
threshold=1.1074043427369484 -1.5279435720956978 -1.2265120085707528 0.26448480478644953 1.2215719367769828 -1.0805615643720476 0.021211222793502408 -1.1228138954266325 -0.82106778158561811 0.29537242479227432 0.15446357511007539 0.4221308426554497 -0.72672877703285887 -0.29948222553183562 -0.863285175607441 0.28004706196009621 -0.30037675826466476 -0.038490352264315825 0.18055174126546011 -0.50798997939817325 0.19707431995879801 -0.96334086529829455 1.1268051143694773 0.18730826541671267 0.10400982216737743 -1.0173275096223777 0.8278010965852276 1.9471491952172861 0.02453319827544265 0.45948384326266006
decision_type=2 2 2 2 2 2 2 2 2 2 2 2 2 2 2 2 2 2 2 2 2 2 2 2 2 2 2 2 2 2
left_child=1 9 10 4 7 17 -6 -4 -7 14 21 13 -13 -12 24 16 18 -5 -11 -2 23 -3 -23 -16 -1 -26 -17 -22 29 -21
right_child=19 2 3 5 6 8 -8 -9 -10 15 11 12 -14 -15 20 26 -18 -19 -20 28 27 22 -24 -25 25 -27 -28 -29 -30 -31
leaf_value=0.054803210462503721 -0.028864013117882805 -0.015352388592329916 0.0090133107476962661 -0.00024456415020048536 -0.008196581658259719 -0.0051552495888631264 0.038024967009215094 0.041133752800126461 0.020191044283113573 -0.010965712589748045 -0.011813344810926482 -0.030572190364982661 -0.0041511951345901297 0.023661628263123301 0.045722847818349621 -0.03949126598663346 -0.029317713583195539 -0.025116009788451465 0.06902385899776875 -0.016439842191222274 -0.032513837325154914 0.022801729016058214 -0.0064312255624476627 -0.036158181822793865 -0.017535713850143336 0.050310384751123316 0.003616432916442436 0.023611152924648354 -0.017025347394324198 0.038299399600603322
leaf_weight=19.159891307353973 448.10537981987 44.815309464931488 149.80737549066544 100.58731552958488 213.59299823641777 286.92551919817924 91.024371147155762 672.04728743433952 539.98379665613174 14.444673925638201 59.760335803031921 255.22991135716438 132.33323028683662 85.559624969959259 16.524220764636997 332.09178438782692 47.323043018579483 194.23647657036781 10.400475621223448 14.406713992357256 60.868235468864441 165.65788853168488 55.89312219619751 7.249018818140029 23.341431379318237 10.698906451463698 14.467533618211744 8.8726653158664686 176.30601632595062 16.660741001367569
leaf_count=56 1507 136 431 301 649 861 256 1886 1557 45 180 838 410 251 47 1133 154 605 31 46 189 486 166 22 71 31 46 27 577 52
internal_value=0.000327803 0.00468702 0.0101466 0.0156681 0.0272573 0.00403003 0.00561513 0.0352789 0.0113962 -0.0247373 -0.00538501 -0.0131995 -0.0215508 0.00907316 -0.000662253 -0.0331727 -0.0114721 -0.0166304 0.0225189 -0.0236995 -0.0136465 0.0102483 0.0154268 0.0207554 0.0221612 0.00378837 -0.0376917 -0.0253734 -0.0125398 0.0129155
internal_weight=4268.38 3612.9 3047.45 2248.21 1126.47 1121.73 304.617 821.855 826.909 565.442 799.249 532.883 387.563 145.32 146.714 418.728 72.1682 294.824 24.8451 655.479 93.5141 266.366 221.551 23.7732 53.2002 34.0403 346.559 69.7409 207.373 31.0675
internal_count=13047 10865 9013 6546 3222 3324 905 2317 2418 1852 2467 1679 1248 431 443 1409 230 906 76 2182 285 788 652 69 158 102 1179 216 675 98
is_linear=0
shrinkage=0.05


Tree=21
num_leaves=31
num_cat=0
split_feature=84 81 82 82 83 11 91 4 21 84 84 8 11 8 17 84 17 17 17 11 7 82 4 25 83 17 35 73 17 24
split_gain=1474.19 283.621 160.033 157.815 100.088 61.9365 46.9773 46.7667 31.4902 29.8998 29.1686 28.7787 24.4712 21.1223 20.4579 20.4474 18.1891 41.4355 16.9707 16.5717 13.7188 13.4598 13.2821 12.9074 12.1259 12.3822 12.0504 11.181 10.6322 10.1341
threshold=0.34163906731177013 -0.87948083521243647 0.83456035447854937 0.047862271636925302 0.64442140037714679 0.83322754062616056 0.016757415567754935 1.0182442049985732 -1.0368658859959274 -0.42418023506210922 -0.42418023506210922 -0.16337245852875057 0.059715423471040148 -1.0159547278432994 -1.0805615643720476 -0.42742221481109127 -0.36447605040114778 0.35150468038063082 0.41029465448241081 0.83322754062616056 0.38421824800062337 0.047073292643571199 0.35789762886222937 -0.70842546855999033 0.64442140037714679 -0.29657574543671722 0.69526607078670766 -0.67889222461508092 -0.86139737622148982 -0.89907297724558255
decision_type=2 2 2 2 2 2 2 2 2 2 2 2 2 2 2 2 2 2 2 2 2 2 2 2 2 2 2 2 2 2
left_child=1 9 3 5 7 6 12 8 29 15 23 13 -2 26 -8 20 -13 -18 21 -10 -1 -9 -19 -6 25 -7 -4 -25 -22 -3
right_child=2 4 11 -5 10 24 14 18 19 -11 -12 16 -14 -15 -16 -17 17 22 -20 -21 28 -23 -24 27 -26 -27 -28 -29 -30 -31
leaf_value=-0.0035331743334298983 0.032952542637969505 0.034070205446884841 0.037213168985968458 -0.048650551773128534 0.037756125746717155 0.044084654394467321 0.024247959201102558 -0.01480112993595583 -0.039948514713453502 -0.045044807692703935 -0.045471828007808489 0.054029782721947445 -0.04794087648571372 -0.049875461332881926 -0.018234373438247149 0.03874780692693483 -0.051081596472106167 0.025184399639064638 -0.023749250138496582 -0.02190259862935795 0.058581996177386492 0.034185923940834702 0.049056266507580985 0.030976089295860945 0.052571794561041787 0.015675345604883165 -0.0074104707760506471 -0.010374302872356109 0.011529239101715284 -0.014075461682662853
leaf_weight=70.682954430580139 161.4434329867363 13.215700447559355 79.659093260765076 83.781737893819809 48.711499392986298 90.262376010417938 36.197932302951813 23.385514587163925 1624.7066393792629 15.838229209184645 21.380387395620346 640.41856953501701 9.9237387180328351 9.3575723171234113 130.52923446893692 139.4633763730526 12.162984371185301 78.038269281387329 57.170120060443878 138.02564090490341 20.298766702413559 35.021210134029388 230.00755852460861 25.399532049894333 132.07442653179169 66.694322526454926 18.676032871007919 45.873354017734528 29.386744350194931 63.188615083694458
leaf_count=208 452 41 218 263 138 247 102 77 5852 55 73 1719 32 29 396 381 37 215 186 443 56 107 623 73 355 189 53 138 83 206
internal_value=-0.000217998 -0.026026 0.0341846 0.0158021 -0.0322964 0.0244128 0.0098843 -0.0352346 -0.0371734 0.0216515 0.00833182 0.0464171 0.0282681 0.0219073 -0.00901109 0.0257171 0.0491648 0.0394347 -0.00438364 -0.0385355 0.0106192 0.014572 0.0430087 0.0179193 0.0414074 0.0320129 0.0287381 0.00436174 0.0307524 -0.00574768
internal_weight=4150.98 2371.75 1779.23 710.907 2096.08 627.125 338.094 1954.71 1839.14 275.67 141.365 1068.32 171.367 107.693 166.727 259.832 960.627 320.209 115.577 1762.73 120.368 58.4067 308.046 119.984 289.031 156.957 98.3351 71.2729 49.6855 76.4043
internal_count=13047 8117 4930 2036 7334 1773 982 6912 6542 783 422 2894 484 300 498 728 2594 875 370 6295 347 184 838 349 791 436 271 211 139 247
is_linear=0
shrinkage=0.05


Tree=22
num_leaves=31
num_cat=0
split_feature=84 81 82 82 83 9 19 18 19 81 83 90 83 43 15 85 60 4 91 0 28 19 20 16 33 90 74 84 19 58
split_gain=1328.34 318.571 141.93 100.38 95.8326 55.2993 57.391 51.137 42.6944 32.6009 30.3575 28.3535 29.071 29.0651 27.6467 26.1048 23.3797 21.6701 19.4555 19.3979 18.9887 18.3917 18.2549 17.9115 16.0987 15.9619 18.3481 15.8474 15.5274 15.383
threshold=-0.42742221481109127 0.52654243865786032 0.047073292643571199 0.047073292643571199 -0.72146004014465803 -0.52140867774390132 0.12631882815460557 0.25543860685100978 0.059125535905652671 -0.84274709428487882 -0.44299137011709139 0.95819130842261557 -0.76149034930082216 -0.28386651402703394 -0.36195985748848974 -0.48849070774664266 0.14914404612318113 0.35789762886222937 0.72981773188202614 0.3011763851797033 -0.93148753363332293 0.52806056550539726 -0.75831527338626581 0.66631061953057968 0.90824212518797143 0.92892329125595341 0.64173670291938822 0.1404240413408904 0.98047532530318426 -0.5563910941509943
decision_type=2 2 2 2 2 2 2 2 2 2 2 2 2 2 2 2 2 2 2 2 2 2 2 2 2 2 2 2 2 2
left_child=1 4 5 7 8 6 24 17 -1 -10 25 12 13 -7 -8 21 -16 19 -11 -3 23 -4 -9 -6 -2 26 -5 29 -13 -23
right_child=2 3 15 10 20 11 14 22 9 18 -12 28 -14 -15 16 -17 -18 -19 -20 -21 -22 27 -24 -25 -26 -27 -28 -29 -30 -31
leaf_value=-0.024386035739156483 -0.025428062062146529 0.019559269769376497 -0.032828190716790127 -0.021243463747196552 -0.021526134636647563 0.04360015344301521 -0.026571571362228336 0.020450391952410878 -0.019156350523826693 0.014697980814552159 -0.027921148376686595 0.031648474843564915 -0.036031914203088052 -0.025279914624944028 0.052088078601281222 -0.037421152010351948 0.0092385320730899653 -0.00093230969517717275 0.044995988722240615 0.048153923152871418 -0.030428387994175455 0.048587337547041629 0.054593562978511291 0.031772190722688054 0.02373838351206797 0.037729087521317983 0.035995699826136637 -0.020312506531204349 -0.023274567054919076 -0.011623555129240369
leaf_weight=50.540119558572769 95.013246268033981 107.73556423187256 103.13083782792091 35.98610931634903 38.113396644592285 25.729091703891754 19.332744389772415 40.935585618019104 34.703795701265335 87.876116514205933 47.235445469617844 36.06954300403595 208.2108111679554 37.839077204465866 91.645458310842514 1378.1415828317404 48.776513874530792 49.847326189279556 133.44739374518394 131.94956216216087 208.91077965497971 22.616030782461166 896.56218630075455 26.880652129650116 20.18644118309021 59.588582694530487 22.91606131196022 54.799581587314606 20.006203830242157 19.978922963142395
leaf_count=157 304 300 354 106 123 76 60 111 108 251 150 109 695 118 260 4915 145 141 366 360 681 69 2403 82 62 167 66 184 61 63
internal_value=-0.000199117 0.0295271 -0.0270877 0.0424971 -0.00159227 -0.00644873 0.010088 0.0474302 0.0176109 0.0259011 0.00597229 -0.0203172 -0.0269962 0.00259916 0.0294862 -0.0349686 0.037204 0.0290629 0.0329662 0.035301 -0.0230854 -0.0181129 0.0531027 0.000517326 -0.0168126 0.0194837 0.0010256 -0.00253084 0.0120535 0.0203458
internal_weight=4154.7 1973.23 2181.48 1392.76 580.472 602.809 274.954 1227.03 306.567 256.027 165.726 327.855 271.779 63.5682 159.755 1578.67 140.422 289.532 221.324 239.685 273.905 200.525 937.498 64.994 115.2 118.491 58.9022 97.3945 56.0757 42.595
internal_count=13047 5572 7475 3804 1768 1890 831 3315 882 725 489 1059 889 194 465 5585 405 801 617 660 886 670 2514 205 366 339 172 316 170 132
is_linear=0
shrinkage=0.05


Tree=23
num_leaves=31
num_cat=0
split_feature=84 82 85 85 8 84 92 82 18 48 56 15 82 61 11 66 14 81 88 41 81 71 84 46 80 20 73 11 17 49
split_gain=162.353 211.604 94.4033 109.254 78.7881 63.1148 68.44 54.9212 43.5025 40.9633 37.5034 30.4467 31.9844 16.308 15.2621 14.7535 14.4198 13.9339 12.3911 12.23 12.0309 12.8094 11.7333 14.431 11.6475 12.4167 9.23836 8.90958 8.78062 8.32053
threshold=1.1074043427369484 -1.5279435720956978 -1.2265120085707528 0.26448480478644953 -0.16337245852875057 0.34218322353392361 -0.27040667273702879 -0.29989831166153341 0.29537242479227432 -0.73480057849968883 -1.073183428248236 0.092573370803072971 0.047073292643571199 -0.863285175607441 0.16070776108114979 -1.3978051149401793 -0.50798997939817325 0.19707431995879801 0.18730826541671267 -1.057654683828446 -0.15728586954483484 0.93989668216269429 -0.56369043243765993 -0.043045017108636098 0.10400982216737743 1.1801816634599149 1.9471491952172861 0.02453319827544265 -0.93024579509353644 -0.60118648308286693
decision_type=2 2 2 2 2 2 2 2 2 2 2 2 2 2 2 2 2 2 2 2 2 2 2 2 2 2 2 2 2 2
left_child=1 8 9 4 7 6 -5 -4 13 19 -6 15 -13 24 20 -11 -2 18 -15 -3 21 -10 23 -16 -1 -26 -19 28 -18 -7
right_child=16 2 3 5 10 29 -8 -9 14 11 -12 12 -14 17 22 -17 27 26 -20 -21 -22 -23 -24 -25 25 -27 -28 -29 -30 -31
leaf_value=0.052475885205406428 -0.027866896557526985 0.041096666902126329 -0.003238864003919901 -0.010772939762174732 0.011072804698905973 0.030617125661470325 0.014899185105148524 0.031096061679893129 0.057599243322838556 -0.023135212415753843 0.042792134532143727 -0.026104453939001782 0.0035374979735536107 0.04333440385096321 -0.037090482509049061 0.014329335213151623 -0.021051143705185654 -0.031632614882758363 -0.035334200895129314 0.0092436018584631068 -0.037875447517944021 -0.026716607645575208 0.047977643010306763 0.031981857286098515 0.024831865512840657 -0.039807890230490216 0.022917369793188053 -0.016200765616191323 0.033723370787478134 0.06495110858261155
leaf_weight=19.400136232376099 437.7624529004097 38.837834417819977 288.62576887011528 577.36040154099464 112.80754467844963 32.237867146730423 471.72779867053032 195.2619888484478 6.8249417543411264 32.600646376609802 535.82901799678802 326.91546615958214 126.11116853356361 16.720762342214588 26.179118543863297 135.49804717302322 11.810562252998354 59.846956193447113 7.1441927850246421 134.4724286198616 342.85018360614777 13.249156206846237 8.5188185572624189 10.633241415023802 22.948669165372849 10.985698223114012 8.9180718064308149 173.7931219637394 19.228606224060059 38.984611093997955
leaf_count=56 1507 115 850 1774 328 88 1355 546 20 101 1498 1073 375 47 87 403 39 189 22 400 1202 41 25 34 68 34 27 577 59 107
internal_value=0.000408139 0.00453896 0.0097076 0.0149336 0.025885 0.00386287 0.000770661 0.0106162 -0.0238798 -0.00511224 0.0372757 -0.0111096 -0.0178529 -0.000452212 -0.032256 0.00706355 -0.0227435 -0.0131338 0.0197842 0.0163817 -0.0356726 0.00194973 -0.00490198 -0.017139 0.0215729 0.0039058 -0.0245581 -0.0117938 0.0128814 0.0494103
internal_weight=4244.09 3601.49 3047.27 2252.83 1132.52 1120.31 1049.09 483.888 554.22 794.436 648.637 621.125 453.027 145.964 408.255 168.099 642.595 92.63 23.865 173.31 362.924 20.0741 45.3312 36.8124 53.3345 33.9344 68.765 204.832 31.0392 71.2225
internal_count=13047 10865 9013 6546 3222 3324 3129 1396 1852 2467 1826 1952 1448 443 1409 504 2182 285 69 515 1263 61 146 121 158 102 216 675 98 195
is_linear=0
shrinkage=0.05


Tree=24
num_leaves=31
num_cat=0
split_feature=84 92 92 92 92 84 92 11 83 83 15 5 83 84 41 63 8 8 22 74 11 15 84 82 91 59 50 55 55 83
split_gain=1344.33 269.314 145.734 88.0371 76.5104 74.4516 56.4594 55.9325 50.6205 44.5279 29.7667 21.0668 18.1615 15.9452 15.6507 15.2348 16.8116 14.7598 14.4882 12.6712 11.6656 11.0151 10.7336 10.1168 9.87934 9.50947 9.46582 8.63414 53.6307 8.60333
threshold=0.34163906731177013 -0.27040667273702879 -0.96334086529829455 -0.27082501853539431 -0.27040667273702879 -0.42418023506210922 0.42185780899934633 0.83322754062616056 -0.038490352264315825 0.64442140037714679 -0.85031928316276117 1.2128084398273404 -0.038490352264315825 -0.42742221481109127 1.1108595222891362 -1.0021052799745898 0.71303717361514873 -0.16337245852875057 0.29117060551321439 -0.98160307587456308 0.83322754062616056 0.073170424438446083 -0.42418023506210922 0.047073292643571199 0.044066383237356684 0.78257233915871016 0.067899800894232656 0.49149150319704588 1.20083061428427 0.64442140037714679
decision_type=2 2 2 2 2 2 2 2 2 2 2 2 2 2 2 2 2 2 2 2 2 2 2 2 2 2 2 2 2 2
left_child=1 5 17 -4 15 8 -6 11 10 -8 23 19 -9 -13 -12 -5 -17 25 26 24 -20 27 -14 -1 -3 -2 -10 -19 -29 -21
right_child=2 7 3 4 6 -7 9 12 18 -11 14 13 22 -15 -16 16 -18 21 20 29 -22 -23 -24 -25 -26 -27 -28 28 -30 -31
leaf_value=-0.00054258160281552773 0.038218455773580962 0.0059485740273827574 -0.04654938423169043 0.054513325425477925 -0.047729806876858849 -0.045437727120416854 0.00080067927935568984 -0.018762798204368235 0.053752500055304832 0.034517866703818699 -0.020926707364024858 -0.029470716271878906 0.022593036374243609 0.014679826019764003 0.025503163690915792 0.019555999389263421 0.046634867160799655 0.054705963565206295 -0.0073424012246057491 -0.04058401292985913 0.03881987048328394 0.032494759495668664 -0.046383789770506598 0.032747427138807648 -0.030207911433421986 0.0027970824649863305 0.027074452276661123 -0.059000080703667523 0.048013323643549821 -0.01910650041710248
leaf_weight=35.732873767614365 55.778171211481094 24.204132497310638 50.51264551281929 111.88484302163124 41.18476003408432 59.506736844778061 256.99767172336578 129.40026423335075 77.471181571483612 158.19347137212753 131.2845054268837 56.687509566545486 51.21727654337883 31.991233706474304 21.061952441930771 124.4275641143322 106.27135667204857 437.63143414258957 32.491553217172623 1384.7207192927599 23.645912140607834 99.685401797294617 6.337916672229766 63.163667440414429 86.095039710402489 28.696381807327271 58.250344038009644 12.18996226787567 296.02550560235977 48.251895189285278
leaf_count=106 151 78 167 302 132 204 763 420 213 432 414 204 150 100 62 348 287 1172 97 5180 65 269 21 178 308 79 163 34 794 154
internal_value=-0.000259025 -0.0253224 0.0324387 0.0174669 0.0215142 0.00707456 0.00810852 -0.0342744 0.0141267 0.0136474 -0.000641397 -0.0372421 -0.00836955 -0.0135432 -0.0145078 0.0393728 0.0320299 0.0461139 0.0334659 -0.0386038 0.0121018 0.0481049 0.0149974 0.0207192 -0.0222737 0.0261857 0.0423025 0.0501913 0.0437809 -0.0398608
internal_weight=4100.99 2321.51 1779.48 849.472 798.96 502.609 456.376 1818.91 443.102 415.191 251.243 1631.95 186.955 88.6787 152.346 342.584 230.699 930.007 191.859 1543.27 56.1375 845.532 57.5552 98.8965 110.299 84.4746 135.722 745.847 308.215 1432.97
internal_count=13047 8117 4930 2431 2264 1502 1327 6615 1298 1195 760 6024 591 304 476 937 635 2499 538 5720 162 2269 171 284 386 230 376 2000 828 5334
is_linear=0
shrinkage=0.05


Tree=25
num_leaves=31
num_cat=0
split_feature=84 81 82 82 8 81 18 67 82 8 90 14 3 81 87 18 25 53 65 33 26 24 3 39 21 9 76 63 65 45
split_gain=1209.99 288.325 134.03 90.0949 56.7305 51.779 47.093 38.9303 34.9641 34.805 27.9486 27.5163 26.9424 26.0911 25.7727 25.7687 27.5982 24.7918 24.069 19.824 18.8352 18.5748 18.4512 18.3806 17.7917 17.6183 17.4949 17.3888 17.3746 16.9236
threshold=-0.42742221481109127 0.52654243865786032 0.047073292643571199 0.047073292643571199 -0.16337245852875057 0.54294685372891205 0.25543860685100978 -0.56198882710671716 -0.81785557171204271 -0.16337245852875057 0.92892329125595341 -0.085032369239973746 -0.37610291888885944 -0.13097824241662528 -0.27598022903168612 0.52966319692520536 -0.49865068868476908 -0.52371661954932369 0.083796531302604518 -0.10641408996512623 0.37775449820613788 0.30318502869663733 -0.31722918907657788 0.18539947474170965 -0.17284242369929601 -0.094343125673159847 0.059229588586743077 1.1611055838865771 0.14827583122610935 -0.098081209343139492
decision_type=2 2 2 2 2 2 2 2 2 2 2 2 2 2 2 2 2 2 2 2 2 2 2 2 2 2 2 2 2 2
left_child=1 4 5 6 11 9 17 14 12 22 -5 -1 -6 -4 19 27 -17 -3 -16 -7 -12 -9 29 -18 -13 -8 -19 -15 -26 -2
right_child=2 3 13 10 8 7 25 21 -10 -11 20 24 -14 15 18 16 23 26 -20 -21 -22 -23 -24 -25 28 -27 -28 -29 -30 -31
leaf_value=-0.022226765760216347 0.053286246892961298 0.039212967928105073 -0.038434670993976287 -0.01322913274067343 0.026784166836200708 -0.00020208060826759305 0.053404637543567036 -0.03435399297401498 -0.025709535470895203 -0.028828689608116805 -0.010071812517093374 0.0016441587371933118 -0.018040900905578475 -0.036493988192685144 -0.017184318039382546 -0.037160301196632745 -0.024812856107233716 -0.026241181386871877 0.080108966634968692 0.064764130575343706 0.044280161040873053 0.007212277559346645 -0.012063971808348832 0.022389949959944176 0.043615107109910844 0.034456505201578967 0.020058015930659395 0.00082194483802809886 -0.01031698090020973 -0.0051193703119439601
leaf_weight=34.5278679728508 27.638012498617172 176.1964223086834 1071.5784619301558 89.50747612118721 73.698327243328094 14.783554732799528 790.83211022615433 42.16151088476181 227.54891163110733 244.09566339850426 22.753240317106247 51.492045849561691 61.493012070655823 280.40577431023121 32.878113329410553 50.504969328641891 29.39911712706089 26.543154448270798 7.8803170621395102 57.081924617290497 53.229250073432922 74.139227241277695 75.383124887943268 69.091306805610657 111.76631864905357 145.20440766215324 88.209221214056015 35.130450069904327 17.236473202705383 22.500122874975204
leaf_count=108 80 479 3985 272 213 43 2123 130 739 831 68 153 190 987 98 173 98 77 23 158 149 221 236 222 314 391 245 120 51 70
internal_value=-0.000243659 0.0280126 -0.0263236 0.0403332 -0.00168153 -0.00625249 0.045004 0.0124341 -0.0137443 -0.0178261 0.00570262 0.0186682 0.00639508 -0.0341442 0.033387 -0.0242471 -0.00710965 0.0274343 0.00162656 0.0513998 0.0280043 -0.00785639 0.00357007 0.00830004 0.0264912 0.0504653 0.00934864 -0.0323394 0.0364091 0.027076
internal_weight=4104.89 1970.24 2134.65 1392.48 577.763 598.542 1226.99 228.925 362.74 369.617 165.49 215.023 135.191 1536.11 112.624 464.532 148.995 290.949 40.7584 71.8655 75.9825 116.301 125.521 98.4904 180.495 936.037 114.752 315.536 129.003 50.1381
internal_count=13047 5572 7475 3804 1768 1890 3315 673 1142 1217 489 626 403 5585 322 1600 493 801 121 201 217 351 386 320 518 2514 322 1107 365 150
is_linear=0
shrinkage=0.05


Tree=26
num_leaves=31
num_cat=0
split_feature=83 82 85 85 51 51 91 48 19 54 83 8 35 5 2 15 92 3 89 4 92 83 6 89 16 83 4 21 25 35
split_gain=155.202 182.418 88.5971 124.847 55.6144 43.9318 40.4954 37.3654 39.1997 35.8944 27.2027 21.3438 20.4362 15.5748 17.4707 13.9082 12.754 12.6642 12.0721 11.784 12.8075 11.5398 10.7139 11.3295 10.2281 9.42545 9.26469 6.76084 10.6546 6.62537
threshold=1.3264038019926205 -1.5279435720956978 1.0102651384753736 -1.2265120085707528 0.31487738959771444 0.99848782478348574 -0.69683498114536013 -0.73480057849968883 0.12931822648039562 0.039938355587689829 0.64763060873152234 0.45193325298939935 0.64002104276439464 0.44301518410839996 -1.1874544611661622 0.28679747773508046 -0.9526271269576706 0.3023468818348603 -0.31389221862760969 0.11085552009053208 0.033078542262712569 0.64442140037714679 -0.39850900710423354 -0.25318137131510687 -0.65115039791649576 -0.84457783025811495 0.35789762886222937 0.70273462898374583 -0.44353541616709341 -0.32635665035957001
decision_type=2 2 2 2 2 2 2 2 2 2 2 2 2 2 2 2 2 2 2 2 2 2 2 2 2 2 2 2 2 2
